117 84 -126 112 
-8 78 25 -2 
18 110 -56 -49 
110 -68 112 87 

-112 -127 -16 30 
114 52 -86 71 
54 -44 -68 -111 
-32 -8 86 -7 

97 -44 -71 -108 
-114 -31 97 17 
-96 100 -70 -92 
-14 1 98 82 

31 -125 -127 82 
-4 -54 40 101 
85 -54 89 -111 
-50 -54 -50 -118 

118 40 -47 -83 
87 -25 53 9 
-49 -113 36 -53 
-37 -52 114 -87 

94 84 -2 90 
-86 -99 62 126 
-73 86 -104 -89 
-4 48 36 -4 

-54 124 -12 104 
107 -107 123 -109 
-109 21 -100 -87 
98 -29 107 98 

71 95 -91 33 
110 103 109 74 
0 67 -6 31 
-23 -85 -108 -67 


-55 -102 100 91 
-7 -120 -3 30 
-71 -61 117 -60 
50 12 48 90 

107 -65 4 32 
-97 -107 94 111 
-59 55 115 126 
34 86 -65 -64 

3 73 127 90 
-7 35 57 45 
-101 -15 -11 20 
-31 -52 -99 -13 

-39 18 -74 -22 
116 -77 51 103 
116 51 38 -112 
-23 -116 81 -85 

-39 70 104 -79 
26 -78 36 99 
-36 60 8 86 
-10 123 36 -55 

-53 126 -45 62 
-119 -86 11 29 
-127 91 -69 39 
71 -22 38 19 

-28 -1 42 -125 
-3 -35 -44 -39 
-84 -14 -59 8 
60 111 100 57 

65 83 76 4 
67 99 -98 -1 
77 102 -6 114 
-46 80 34 -10 


37 -2 37 92 
46 24 -72 77 
124 119 95 11 
80 19 -98 -109 

105 79 28 108 
68 80 -2 123 
-103 71 -114 -93 
-87 120 -13 89 

39 125 -37 -6 
-66 4 66 107 
73 19 31 -111 
-92 -110 -67 1 

-87 -63 22 -102 
-16 69 -28 -33 
64 -26 -42 109 
116 54 98 -115 

-36 -121 50 52 
-97 60 -115 -42 
6 94 -120 -47 
-96 -17 3 94 

99 -102 0 59 
-20 -85 -74 17 
11 106 87 65 
25 -123 -42 -62 

-26 -126 122 51 
-58 -26 19 -57 
-37 4 50 -77 
103 120 52 120 

-92 22 -30 -21 
-100 17 -94 -33 
10 -112 66 -67 
-25 85 63 23 


-57 -82 81 -31 
32 32 -102 -80 
-46 68 2 90 
88 -67 123 99 

73 82 -15 -127 
94 -52 -21 120 
-58 123 -107 82 
4 93 81 -98 

63 79 -81 -11 
44 11 74 66 
-1 -121 -39 -74 
-56 -78 -97 37 

116 -3 -117 91 
6 -2 -70 48 
-15 118 88 -74 
118 1 -90 67 

105 -27 -126 -57 
-13 57 122 -65 
93 -32 -105 114 
49 -118 -12 -114 

-102 -76 18 117 
-44 60 -21 120 
-59 33 -118 4 
-77 -27 38 -88 

58 -115 -108 75 
95 -22 -22 34 
-78 -85 -23 86 
-67 -75 -88 44 

-79 -21 -73 -60 
106 -34 37 21 
123 109 -110 -9 
108 38 58 20 


-65 101 58 109 
10 -85 62 -97 
122 -107 -2 54 
60 86 -90 -14 

120 -58 83 17 
68 59 29 -2 
63 80 65 36 
7 38 -87 24 

70 5 72 -32 
-88 75 -24 -82 
-65 -26 -124 -80 
-127 31 -62 17 

56 -1 73 93 
104 -16 -42 -92 
63 -41 -36 -39 
-108 -96 -122 95 

43 -59 101 -105 
59 43 41 79 
-41 42 -45 102 
-48 -87 -13 66 

-29 -88 -2 47 
70 -118 3 72 
26 -37 -85 98 
91 34 -3 17 

-3 39 92 58 
-76 -38 -51 28 
61 -116 62 0 
91 -6 -49 -71 

17 44 -60 -111 
-64 -85 75 -114 
-86 -106 -30 -82 
-123 65 97 20 


54 -52 -2 38 
120 31 -81 -24 
-72 100 -118 5 
57 20 54 -20 

80 95 -59 15 
45 -110 -39 -107 
-86 0 -8 -54 
31 30 -40 -68 

125 -81 8 -12 
81 65 -47 -88 
8 101 60 -112 
-91 33 7 110 

-85 -26 94 29 
-7 -122 -37 95 
25 -17 -102 15 
-89 24 -12 -71 

104 -17 -54 -115 
-61 64 -57 -102 
-14 -22 -57 4 
98 75 100 -35 

-106 -63 -33 122 
60 -26 -12 34 
-58 -37 55 -88 
-105 56 -51 114 

31 71 16 -5 
-17 3 23 30 
123 49 -120 121 
43 -111 -32 24 

67 -47 24 -118 
-9 -52 -57 -127 
-43 -103 -57 21 
-29 -125 -118 -16 


34 -41 -119 -113 
69 54 -78 98 
76 -45 -73 -117 
-77 -22 -104 61 

-99 26 43 59 
68 78 -89 -91 
-7 63 115 -32 
126 108 -121 -28 

-102 -65 18 -118 
30 89 -122 34 
113 -42 85 -10 
16 12 -97 -93 

81 -101 109 -12 
87 -90 -48 -125 
71 56 12 -20 
119 -63 43 52 

-92 -73 102 -119 
88 -106 88 -118 
12 -120 119 -21 
5 -89 -105 -49 

20 -42 -6 -106 
-21 -86 112 -38 
114 -79 6 111 
60 -7 61 96 

94 61 -35 -122 
-87 -16 17 51 
44 -35 19 68 
-53 51 73 56 

41 66 98 -4 
-82 60 -37 -121 
-6 52 -24 105 
-73 5 -23 -87 


-66 120 -53 -57 
-109 -15 4 63 
90 88 -98 68 
38 88 -81 61 

-28 -112 -75 25 
-46 -47 100 73 
67 82 -66 4 
-86 85 -114 -26 

76 23 -82 -26 
16 121 82 15 
59 -121 48 -63 
11 114 110 31 

-123 -1 -30 -83 
26 76 11 -86 
-51 35 35 105 
-11 47 -87 -36 

9 76 -69 59 
92 14 -108 40 
-51 76 28 -106 
-65 -117 38 -76 

36 30 47 -80 
-4 46 125 86 
-110 -128 65 84 
-40 -128 112 121 

-11 -106 54 -73 
-78 -2 99 -124 
16 73 -126 -101 
107 117 27 60 

-82 98 -78 -49 
73 48 50 -36 
-14 -63 -117 103 
-65 18 63 60 


