117 -8 18 110 
84 78 110 -68 
-126 25 -56 112 
112 -2 -49 87 

-112 114 54 -32 
-127 52 -44 -8 
-16 -86 -68 86 
30 71 -111 -7 

97 -114 -96 -14 
-44 -31 100 1 
-71 97 -70 98 
-108 17 -92 82 

31 -4 85 -50 
-125 -54 -54 -54 
-127 40 89 -50 
82 101 -111 -118 

118 87 -49 -37 
40 -25 -113 -52 
-47 53 36 114 
-83 9 -53 -87 

94 -86 -73 -4 
84 -99 86 48 
-2 62 -104 36 
90 126 -89 -4 

-54 107 -109 98 
124 -107 21 -29 
-12 123 -100 107 
104 -109 -87 98 

71 110 0 -23 
95 103 67 -85 
-91 109 -6 -108 
33 74 31 -67 


117 -8 18 110 
84 78 110 -68 
-126 25 -56 112 
112 -2 -49 87 

-112 114 54 -32 
-127 52 -44 -8 
-16 -86 -68 86 
30 71 -111 -7 

97 -114 -96 -14 
-44 -31 100 1 
-71 97 -70 98 
-108 17 -92 82 

31 -4 85 -50 
-125 -54 -54 -54 
-127 40 89 -50 
82 101 -111 -118 

118 87 -49 -37 
40 -25 -113 -52 
-47 53 36 114 
-83 9 -53 -87 

94 -86 -73 -4 
84 -99 86 48 
-2 62 -104 36 
90 126 -89 -4 

-54 107 -109 98 
124 -107 21 -29 
-12 123 -100 107 
104 -109 -87 98 

71 110 0 -23 
95 103 67 -85 
-91 109 -6 -108 
33 74 31 -67 


117 -8 18 110 
84 78 110 -68 
-126 25 -56 112 
112 -2 -49 87 

-112 114 54 -32 
-127 52 -44 -8 
-16 -86 -68 86 
30 71 -111 -7 

97 -114 -96 -14 
-44 -31 100 1 
-71 97 -70 98 
-108 17 -92 82 

31 -4 85 -50 
-125 -54 -54 -54 
-127 40 89 -50 
82 101 -111 -118 

118 87 -49 -37 
40 -25 -113 -52 
-47 53 36 114 
-83 9 -53 -87 

94 -86 -73 -4 
84 -99 86 48 
-2 62 -104 36 
90 126 -89 -4 

-54 107 -109 98 
124 -107 21 -29 
-12 123 -100 107 
104 -109 -87 98 

71 110 0 -23 
95 103 67 -85 
-91 109 -6 -108 
33 74 31 -67 


117 -8 18 110 
84 78 110 -68 
-126 25 -56 112 
112 -2 -49 87 

-112 114 54 -32 
-127 52 -44 -8 
-16 -86 -68 86 
30 71 -111 -7 

97 -114 -96 -14 
-44 -31 100 1 
-71 97 -70 98 
-108 17 -92 82 

31 -4 85 -50 
-125 -54 -54 -54 
-127 40 89 -50 
82 101 -111 -118 

118 87 -49 -37 
40 -25 -113 -52 
-47 53 36 114 
-83 9 -53 -87 

94 -86 -73 -4 
84 -99 86 48 
-2 62 -104 36 
90 126 -89 -4 

-54 107 -109 98 
124 -107 21 -29 
-12 123 -100 107 
104 -109 -87 98 

71 110 0 -23 
95 103 67 -85 
-91 109 -6 -108 
33 74 31 -67 



117 -8 18 110 
84 78 110 -68 
-126 25 -56 112 
112 -2 -49 87 

-112 114 54 -32 
-127 52 -44 -8 
-16 -86 -68 86 
30 71 -111 -7 

97 -114 -96 -14 
-44 -31 100 1 
-71 97 -70 98 
-108 17 -92 82 

31 -4 85 -50 
-125 -54 -54 -54 
-127 40 89 -50 
82 101 -111 -118 

118 87 -49 -37 
40 -25 -113 -52 
-47 53 36 114 
-83 9 -53 -87 

94 -86 -73 -4 
84 -99 86 48 
-2 62 -104 36 
90 126 -89 -4 

-54 107 -109 98 
124 -107 21 -29 
-12 123 -100 107 
104 -109 -87 98 

71 110 0 -23 
95 103 67 -85 
-91 109 -6 -108 
33 74 31 -67 


117 -8 18 110 
84 78 110 -68 
-126 25 -56 112 
112 -2 -49 87 

-112 114 54 -32 
-127 52 -44 -8 
-16 -86 -68 86 
30 71 -111 -7 

97 -114 -96 -14 
-44 -31 100 1 
-71 97 -70 98 
-108 17 -92 82 

31 -4 85 -50 
-125 -54 -54 -54 
-127 40 89 -50 
82 101 -111 -118 

118 87 -49 -37 
40 -25 -113 -52 
-47 53 36 114 
-83 9 -53 -87 

94 -86 -73 -4 
84 -99 86 48 
-2 62 -104 36 
90 126 -89 -4 

-54 107 -109 98 
124 -107 21 -29 
-12 123 -100 107 
104 -109 -87 98 

71 110 0 -23 
95 103 67 -85 
-91 109 -6 -108 
33 74 31 -67 


117 -8 18 110 
84 78 110 -68 
-126 25 -56 112 
112 -2 -49 87 

-112 114 54 -32 
-127 52 -44 -8 
-16 -86 -68 86 
30 71 -111 -7 

97 -114 -96 -14 
-44 -31 100 1 
-71 97 -70 98 
-108 17 -92 82 

31 -4 85 -50 
-125 -54 -54 -54 
-127 40 89 -50 
82 101 -111 -118 

118 87 -49 -37 
40 -25 -113 -52 
-47 53 36 114 
-83 9 -53 -87 

94 -86 -73 -4 
84 -99 86 48 
-2 62 -104 36 
90 126 -89 -4 

-54 107 -109 98 
124 -107 21 -29 
-12 123 -100 107 
104 -109 -87 98 

71 110 0 -23 
95 103 67 -85 
-91 109 -6 -108 
33 74 31 -67 


117 -8 18 110 
84 78 110 -68 
-126 25 -56 112 
112 -2 -49 87 

-112 114 54 -32 
-127 52 -44 -8 
-16 -86 -68 86 
30 71 -111 -7 

97 -114 -96 -14 
-44 -31 100 1 
-71 97 -70 98 
-108 17 -92 82 

31 -4 85 -50 
-125 -54 -54 -54 
-127 40 89 -50 
82 101 -111 -118 

118 87 -49 -37 
40 -25 -113 -52 
-47 53 36 114 
-83 9 -53 -87 

94 -86 -73 -4 
84 -99 86 48 
-2 62 -104 36 
90 126 -89 -4 

-54 107 -109 98 
124 -107 21 -29 
-12 123 -100 107 
104 -109 -87 98 

71 110 0 -23 
95 103 67 -85 
-91 109 -6 -108 
33 74 31 -67 



117 -8 18 110 
84 78 110 -68 
-126 25 -56 112 
112 -2 -49 87 

-112 114 54 -32 
-127 52 -44 -8 
-16 -86 -68 86 
30 71 -111 -7 

97 -114 -96 -14 
-44 -31 100 1 
-71 97 -70 98 
-108 17 -92 82 

31 -4 85 -50 
-125 -54 -54 -54 
-127 40 89 -50 
82 101 -111 -118 

118 87 -49 -37 
40 -25 -113 -52 
-47 53 36 114 
-83 9 -53 -87 

94 -86 -73 -4 
84 -99 86 48 
-2 62 -104 36 
90 126 -89 -4 

-54 107 -109 98 
124 -107 21 -29 
-12 123 -100 107 
104 -109 -87 98 

71 110 0 -23 
95 103 67 -85 
-91 109 -6 -108 
33 74 31 -67 


117 -8 18 110 
84 78 110 -68 
-126 25 -56 112 
112 -2 -49 87 

-112 114 54 -32 
-127 52 -44 -8 
-16 -86 -68 86 
30 71 -111 -7 

97 -114 -96 -14 
-44 -31 100 1 
-71 97 -70 98 
-108 17 -92 82 

31 -4 85 -50 
-125 -54 -54 -54 
-127 40 89 -50 
82 101 -111 -118 

118 87 -49 -37 
40 -25 -113 -52 
-47 53 36 114 
-83 9 -53 -87 

94 -86 -73 -4 
84 -99 86 48 
-2 62 -104 36 
90 126 -89 -4 

-54 107 -109 98 
124 -107 21 -29 
-12 123 -100 107 
104 -109 -87 98 

71 110 0 -23 
95 103 67 -85 
-91 109 -6 -108 
33 74 31 -67 


117 -8 18 110 
84 78 110 -68 
-126 25 -56 112 
112 -2 -49 87 

-112 114 54 -32 
-127 52 -44 -8 
-16 -86 -68 86 
30 71 -111 -7 

97 -114 -96 -14 
-44 -31 100 1 
-71 97 -70 98 
-108 17 -92 82 

31 -4 85 -50 
-125 -54 -54 -54 
-127 40 89 -50 
82 101 -111 -118 

118 87 -49 -37 
40 -25 -113 -52 
-47 53 36 114 
-83 9 -53 -87 

94 -86 -73 -4 
84 -99 86 48 
-2 62 -104 36 
90 126 -89 -4 

-54 107 -109 98 
124 -107 21 -29 
-12 123 -100 107 
104 -109 -87 98 

71 110 0 -23 
95 103 67 -85 
-91 109 -6 -108 
33 74 31 -67 


117 -8 18 110 
84 78 110 -68 
-126 25 -56 112 
112 -2 -49 87 

-112 114 54 -32 
-127 52 -44 -8 
-16 -86 -68 86 
30 71 -111 -7 

97 -114 -96 -14 
-44 -31 100 1 
-71 97 -70 98 
-108 17 -92 82 

31 -4 85 -50 
-125 -54 -54 -54 
-127 40 89 -50 
82 101 -111 -118 

118 87 -49 -37 
40 -25 -113 -52 
-47 53 36 114 
-83 9 -53 -87 

94 -86 -73 -4 
84 -99 86 48 
-2 62 -104 36 
90 126 -89 -4 

-54 107 -109 98 
124 -107 21 -29 
-12 123 -100 107 
104 -109 -87 98 

71 110 0 -23 
95 103 67 -85 
-91 109 -6 -108 
33 74 31 -67 



117 -8 18 110 
84 78 110 -68 
-126 25 -56 112 
112 -2 -49 87 

-112 114 54 -32 
-127 52 -44 -8 
-16 -86 -68 86 
30 71 -111 -7 

97 -114 -96 -14 
-44 -31 100 1 
-71 97 -70 98 
-108 17 -92 82 

31 -4 85 -50 
-125 -54 -54 -54 
-127 40 89 -50 
82 101 -111 -118 

118 87 -49 -37 
40 -25 -113 -52 
-47 53 36 114 
-83 9 -53 -87 

94 -86 -73 -4 
84 -99 86 48 
-2 62 -104 36 
90 126 -89 -4 

-54 107 -109 98 
124 -107 21 -29 
-12 123 -100 107 
104 -109 -87 98 

71 110 0 -23 
95 103 67 -85 
-91 109 -6 -108 
33 74 31 -67 


117 -8 18 110 
84 78 110 -68 
-126 25 -56 112 
112 -2 -49 87 

-112 114 54 -32 
-127 52 -44 -8 
-16 -86 -68 86 
30 71 -111 -7 

97 -114 -96 -14 
-44 -31 100 1 
-71 97 -70 98 
-108 17 -92 82 

31 -4 85 -50 
-125 -54 -54 -54 
-127 40 89 -50 
82 101 -111 -118 

118 87 -49 -37 
40 -25 -113 -52 
-47 53 36 114 
-83 9 -53 -87 

94 -86 -73 -4 
84 -99 86 48 
-2 62 -104 36 
90 126 -89 -4 

-54 107 -109 98 
124 -107 21 -29 
-12 123 -100 107 
104 -109 -87 98 

71 110 0 -23 
95 103 67 -85 
-91 109 -6 -108 
33 74 31 -67 


117 -8 18 110 
84 78 110 -68 
-126 25 -56 112 
112 -2 -49 87 

-112 114 54 -32 
-127 52 -44 -8 
-16 -86 -68 86 
30 71 -111 -7 

97 -114 -96 -14 
-44 -31 100 1 
-71 97 -70 98 
-108 17 -92 82 

31 -4 85 -50 
-125 -54 -54 -54 
-127 40 89 -50 
82 101 -111 -118 

118 87 -49 -37 
40 -25 -113 -52 
-47 53 36 114 
-83 9 -53 -87 

94 -86 -73 -4 
84 -99 86 48 
-2 62 -104 36 
90 126 -89 -4 

-54 107 -109 98 
124 -107 21 -29 
-12 123 -100 107 
104 -109 -87 98 

71 110 0 -23 
95 103 67 -85 
-91 109 -6 -108 
33 74 31 -67 


117 -8 18 110 
84 78 110 -68 
-126 25 -56 112 
112 -2 -49 87 

-112 114 54 -32 
-127 52 -44 -8 
-16 -86 -68 86 
30 71 -111 -7 

97 -114 -96 -14 
-44 -31 100 1 
-71 97 -70 98 
-108 17 -92 82 

31 -4 85 -50 
-125 -54 -54 -54 
-127 40 89 -50 
82 101 -111 -118 

118 87 -49 -37 
40 -25 -113 -52 
-47 53 36 114 
-83 9 -53 -87 

94 -86 -73 -4 
84 -99 86 48 
-2 62 -104 36 
90 126 -89 -4 

-54 107 -109 98 
124 -107 21 -29 
-12 123 -100 107 
104 -109 -87 98 

71 110 0 -23 
95 103 67 -85 
-91 109 -6 -108 
33 74 31 -67 



117 -8 18 110 
84 78 110 -68 
-126 25 -56 112 
112 -2 -49 87 

-112 114 54 -32 
-127 52 -44 -8 
-16 -86 -68 86 
30 71 -111 -7 

97 -114 -96 -14 
-44 -31 100 1 
-71 97 -70 98 
-108 17 -92 82 

31 -4 85 -50 
-125 -54 -54 -54 
-127 40 89 -50 
82 101 -111 -118 

118 87 -49 -37 
40 -25 -113 -52 
-47 53 36 114 
-83 9 -53 -87 

94 -86 -73 -4 
84 -99 86 48 
-2 62 -104 36 
90 126 -89 -4 

-54 107 -109 98 
124 -107 21 -29 
-12 123 -100 107 
104 -109 -87 98 

71 110 0 -23 
95 103 67 -85 
-91 109 -6 -108 
33 74 31 -67 


117 -8 18 110 
84 78 110 -68 
-126 25 -56 112 
112 -2 -49 87 

-112 114 54 -32 
-127 52 -44 -8 
-16 -86 -68 86 
30 71 -111 -7 

97 -114 -96 -14 
-44 -31 100 1 
-71 97 -70 98 
-108 17 -92 82 

31 -4 85 -50 
-125 -54 -54 -54 
-127 40 89 -50 
82 101 -111 -118 

118 87 -49 -37 
40 -25 -113 -52 
-47 53 36 114 
-83 9 -53 -87 

94 -86 -73 -4 
84 -99 86 48 
-2 62 -104 36 
90 126 -89 -4 

-54 107 -109 98 
124 -107 21 -29 
-12 123 -100 107 
104 -109 -87 98 

71 110 0 -23 
95 103 67 -85 
-91 109 -6 -108 
33 74 31 -67 


117 -8 18 110 
84 78 110 -68 
-126 25 -56 112 
112 -2 -49 87 

-112 114 54 -32 
-127 52 -44 -8 
-16 -86 -68 86 
30 71 -111 -7 

97 -114 -96 -14 
-44 -31 100 1 
-71 97 -70 98 
-108 17 -92 82 

31 -4 85 -50 
-125 -54 -54 -54 
-127 40 89 -50 
82 101 -111 -118 

118 87 -49 -37 
40 -25 -113 -52 
-47 53 36 114 
-83 9 -53 -87 

94 -86 -73 -4 
84 -99 86 48 
-2 62 -104 36 
90 126 -89 -4 

-54 107 -109 98 
124 -107 21 -29 
-12 123 -100 107 
104 -109 -87 98 

71 110 0 -23 
95 103 67 -85 
-91 109 -6 -108 
33 74 31 -67 


117 -8 18 110 
84 78 110 -68 
-126 25 -56 112 
112 -2 -49 87 

-112 114 54 -32 
-127 52 -44 -8 
-16 -86 -68 86 
30 71 -111 -7 

97 -114 -96 -14 
-44 -31 100 1 
-71 97 -70 98 
-108 17 -92 82 

31 -4 85 -50 
-125 -54 -54 -54 
-127 40 89 -50 
82 101 -111 -118 

118 87 -49 -37 
40 -25 -113 -52 
-47 53 36 114 
-83 9 -53 -87 

94 -86 -73 -4 
84 -99 86 48 
-2 62 -104 36 
90 126 -89 -4 

-54 107 -109 98 
124 -107 21 -29 
-12 123 -100 107 
104 -109 -87 98 

71 110 0 -23 
95 103 67 -85 
-91 109 -6 -108 
33 74 31 -67 



117 -8 18 110 
84 78 110 -68 
-126 25 -56 112 
112 -2 -49 87 

-112 114 54 -32 
-127 52 -44 -8 
-16 -86 -68 86 
30 71 -111 -7 

97 -114 -96 -14 
-44 -31 100 1 
-71 97 -70 98 
-108 17 -92 82 

31 -4 85 -50 
-125 -54 -54 -54 
-127 40 89 -50 
82 101 -111 -118 

118 87 -49 -37 
40 -25 -113 -52 
-47 53 36 114 
-83 9 -53 -87 

94 -86 -73 -4 
84 -99 86 48 
-2 62 -104 36 
90 126 -89 -4 

-54 107 -109 98 
124 -107 21 -29 
-12 123 -100 107 
104 -109 -87 98 

71 110 0 -23 
95 103 67 -85 
-91 109 -6 -108 
33 74 31 -67 


117 -8 18 110 
84 78 110 -68 
-126 25 -56 112 
112 -2 -49 87 

-112 114 54 -32 
-127 52 -44 -8 
-16 -86 -68 86 
30 71 -111 -7 

97 -114 -96 -14 
-44 -31 100 1 
-71 97 -70 98 
-108 17 -92 82 

31 -4 85 -50 
-125 -54 -54 -54 
-127 40 89 -50 
82 101 -111 -118 

118 87 -49 -37 
40 -25 -113 -52 
-47 53 36 114 
-83 9 -53 -87 

94 -86 -73 -4 
84 -99 86 48 
-2 62 -104 36 
90 126 -89 -4 

-54 107 -109 98 
124 -107 21 -29 
-12 123 -100 107 
104 -109 -87 98 

71 110 0 -23 
95 103 67 -85 
-91 109 -6 -108 
33 74 31 -67 


117 -8 18 110 
84 78 110 -68 
-126 25 -56 112 
112 -2 -49 87 

-112 114 54 -32 
-127 52 -44 -8 
-16 -86 -68 86 
30 71 -111 -7 

97 -114 -96 -14 
-44 -31 100 1 
-71 97 -70 98 
-108 17 -92 82 

31 -4 85 -50 
-125 -54 -54 -54 
-127 40 89 -50 
82 101 -111 -118 

118 87 -49 -37 
40 -25 -113 -52 
-47 53 36 114 
-83 9 -53 -87 

94 -86 -73 -4 
84 -99 86 48 
-2 62 -104 36 
90 126 -89 -4 

-54 107 -109 98 
124 -107 21 -29 
-12 123 -100 107 
104 -109 -87 98 

71 110 0 -23 
95 103 67 -85 
-91 109 -6 -108 
33 74 31 -67 


117 -8 18 110 
84 78 110 -68 
-126 25 -56 112 
112 -2 -49 87 

-112 114 54 -32 
-127 52 -44 -8 
-16 -86 -68 86 
30 71 -111 -7 

97 -114 -96 -14 
-44 -31 100 1 
-71 97 -70 98 
-108 17 -92 82 

31 -4 85 -50 
-125 -54 -54 -54 
-127 40 89 -50 
82 101 -111 -118 

118 87 -49 -37 
40 -25 -113 -52 
-47 53 36 114 
-83 9 -53 -87 

94 -86 -73 -4 
84 -99 86 48 
-2 62 -104 36 
90 126 -89 -4 

-54 107 -109 98 
124 -107 21 -29 
-12 123 -100 107 
104 -109 -87 98 

71 110 0 -23 
95 103 67 -85 
-91 109 -6 -108 
33 74 31 -67 



117 -8 18 110 
84 78 110 -68 
-126 25 -56 112 
112 -2 -49 87 

-112 114 54 -32 
-127 52 -44 -8 
-16 -86 -68 86 
30 71 -111 -7 

97 -114 -96 -14 
-44 -31 100 1 
-71 97 -70 98 
-108 17 -92 82 

31 -4 85 -50 
-125 -54 -54 -54 
-127 40 89 -50 
82 101 -111 -118 

118 87 -49 -37 
40 -25 -113 -52 
-47 53 36 114 
-83 9 -53 -87 

94 -86 -73 -4 
84 -99 86 48 
-2 62 -104 36 
90 126 -89 -4 

-54 107 -109 98 
124 -107 21 -29 
-12 123 -100 107 
104 -109 -87 98 

71 110 0 -23 
95 103 67 -85 
-91 109 -6 -108 
33 74 31 -67 


117 -8 18 110 
84 78 110 -68 
-126 25 -56 112 
112 -2 -49 87 

-112 114 54 -32 
-127 52 -44 -8 
-16 -86 -68 86 
30 71 -111 -7 

97 -114 -96 -14 
-44 -31 100 1 
-71 97 -70 98 
-108 17 -92 82 

31 -4 85 -50 
-125 -54 -54 -54 
-127 40 89 -50 
82 101 -111 -118 

118 87 -49 -37 
40 -25 -113 -52 
-47 53 36 114 
-83 9 -53 -87 

94 -86 -73 -4 
84 -99 86 48 
-2 62 -104 36 
90 126 -89 -4 

-54 107 -109 98 
124 -107 21 -29 
-12 123 -100 107 
104 -109 -87 98 

71 110 0 -23 
95 103 67 -85 
-91 109 -6 -108 
33 74 31 -67 


117 -8 18 110 
84 78 110 -68 
-126 25 -56 112 
112 -2 -49 87 

-112 114 54 -32 
-127 52 -44 -8 
-16 -86 -68 86 
30 71 -111 -7 

97 -114 -96 -14 
-44 -31 100 1 
-71 97 -70 98 
-108 17 -92 82 

31 -4 85 -50 
-125 -54 -54 -54 
-127 40 89 -50 
82 101 -111 -118 

118 87 -49 -37 
40 -25 -113 -52 
-47 53 36 114 
-83 9 -53 -87 

94 -86 -73 -4 
84 -99 86 48 
-2 62 -104 36 
90 126 -89 -4 

-54 107 -109 98 
124 -107 21 -29 
-12 123 -100 107 
104 -109 -87 98 

71 110 0 -23 
95 103 67 -85 
-91 109 -6 -108 
33 74 31 -67 


117 -8 18 110 
84 78 110 -68 
-126 25 -56 112 
112 -2 -49 87 

-112 114 54 -32 
-127 52 -44 -8 
-16 -86 -68 86 
30 71 -111 -7 

97 -114 -96 -14 
-44 -31 100 1 
-71 97 -70 98 
-108 17 -92 82 

31 -4 85 -50 
-125 -54 -54 -54 
-127 40 89 -50 
82 101 -111 -118 

118 87 -49 -37 
40 -25 -113 -52 
-47 53 36 114 
-83 9 -53 -87 

94 -86 -73 -4 
84 -99 86 48 
-2 62 -104 36 
90 126 -89 -4 

-54 107 -109 98 
124 -107 21 -29 
-12 123 -100 107 
104 -109 -87 98 

71 110 0 -23 
95 103 67 -85 
-91 109 -6 -108 
33 74 31 -67 



117 -8 18 110 
84 78 110 -68 
-126 25 -56 112 
112 -2 -49 87 

-112 114 54 -32 
-127 52 -44 -8 
-16 -86 -68 86 
30 71 -111 -7 

97 -114 -96 -14 
-44 -31 100 1 
-71 97 -70 98 
-108 17 -92 82 

31 -4 85 -50 
-125 -54 -54 -54 
-127 40 89 -50 
82 101 -111 -118 

118 87 -49 -37 
40 -25 -113 -52 
-47 53 36 114 
-83 9 -53 -87 

94 -86 -73 -4 
84 -99 86 48 
-2 62 -104 36 
90 126 -89 -4 

-54 107 -109 98 
124 -107 21 -29 
-12 123 -100 107 
104 -109 -87 98 

71 110 0 -23 
95 103 67 -85 
-91 109 -6 -108 
33 74 31 -67 


117 -8 18 110 
84 78 110 -68 
-126 25 -56 112 
112 -2 -49 87 

-112 114 54 -32 
-127 52 -44 -8 
-16 -86 -68 86 
30 71 -111 -7 

97 -114 -96 -14 
-44 -31 100 1 
-71 97 -70 98 
-108 17 -92 82 

31 -4 85 -50 
-125 -54 -54 -54 
-127 40 89 -50 
82 101 -111 -118 

118 87 -49 -37 
40 -25 -113 -52 
-47 53 36 114 
-83 9 -53 -87 

94 -86 -73 -4 
84 -99 86 48 
-2 62 -104 36 
90 126 -89 -4 

-54 107 -109 98 
124 -107 21 -29 
-12 123 -100 107 
104 -109 -87 98 

71 110 0 -23 
95 103 67 -85 
-91 109 -6 -108 
33 74 31 -67 


117 -8 18 110 
84 78 110 -68 
-126 25 -56 112 
112 -2 -49 87 

-112 114 54 -32 
-127 52 -44 -8 
-16 -86 -68 86 
30 71 -111 -7 

97 -114 -96 -14 
-44 -31 100 1 
-71 97 -70 98 
-108 17 -92 82 

31 -4 85 -50 
-125 -54 -54 -54 
-127 40 89 -50 
82 101 -111 -118 

118 87 -49 -37 
40 -25 -113 -52 
-47 53 36 114 
-83 9 -53 -87 

94 -86 -73 -4 
84 -99 86 48 
-2 62 -104 36 
90 126 -89 -4 

-54 107 -109 98 
124 -107 21 -29 
-12 123 -100 107 
104 -109 -87 98 

71 110 0 -23 
95 103 67 -85 
-91 109 -6 -108 
33 74 31 -67 


117 -8 18 110 
84 78 110 -68 
-126 25 -56 112 
112 -2 -49 87 

-112 114 54 -32 
-127 52 -44 -8 
-16 -86 -68 86 
30 71 -111 -7 

97 -114 -96 -14 
-44 -31 100 1 
-71 97 -70 98 
-108 17 -92 82 

31 -4 85 -50 
-125 -54 -54 -54 
-127 40 89 -50 
82 101 -111 -118 

118 87 -49 -37 
40 -25 -113 -52 
-47 53 36 114 
-83 9 -53 -87 

94 -86 -73 -4 
84 -99 86 48 
-2 62 -104 36 
90 126 -89 -4 

-54 107 -109 98 
124 -107 21 -29 
-12 123 -100 107 
104 -109 -87 98 

71 110 0 -23 
95 103 67 -85 
-91 109 -6 -108 
33 74 31 -67 



117 -8 18 110 
84 78 110 -68 
-126 25 -56 112 
112 -2 -49 87 

-112 114 54 -32 
-127 52 -44 -8 
-16 -86 -68 86 
30 71 -111 -7 

97 -114 -96 -14 
-44 -31 100 1 
-71 97 -70 98 
-108 17 -92 82 

31 -4 85 -50 
-125 -54 -54 -54 
-127 40 89 -50 
82 101 -111 -118 

118 87 -49 -37 
40 -25 -113 -52 
-47 53 36 114 
-83 9 -53 -87 

94 -86 -73 -4 
84 -99 86 48 
-2 62 -104 36 
90 126 -89 -4 

-54 107 -109 98 
124 -107 21 -29 
-12 123 -100 107 
104 -109 -87 98 

71 110 0 -23 
95 103 67 -85 
-91 109 -6 -108 
33 74 31 -67 


117 -8 18 110 
84 78 110 -68 
-126 25 -56 112 
112 -2 -49 87 

-112 114 54 -32 
-127 52 -44 -8 
-16 -86 -68 86 
30 71 -111 -7 

97 -114 -96 -14 
-44 -31 100 1 
-71 97 -70 98 
-108 17 -92 82 

31 -4 85 -50 
-125 -54 -54 -54 
-127 40 89 -50 
82 101 -111 -118 

118 87 -49 -37 
40 -25 -113 -52 
-47 53 36 114 
-83 9 -53 -87 

94 -86 -73 -4 
84 -99 86 48 
-2 62 -104 36 
90 126 -89 -4 

-54 107 -109 98 
124 -107 21 -29 
-12 123 -100 107 
104 -109 -87 98 

71 110 0 -23 
95 103 67 -85 
-91 109 -6 -108 
33 74 31 -67 


117 -8 18 110 
84 78 110 -68 
-126 25 -56 112 
112 -2 -49 87 

-112 114 54 -32 
-127 52 -44 -8 
-16 -86 -68 86 
30 71 -111 -7 

97 -114 -96 -14 
-44 -31 100 1 
-71 97 -70 98 
-108 17 -92 82 

31 -4 85 -50 
-125 -54 -54 -54 
-127 40 89 -50 
82 101 -111 -118 

118 87 -49 -37 
40 -25 -113 -52 
-47 53 36 114 
-83 9 -53 -87 

94 -86 -73 -4 
84 -99 86 48 
-2 62 -104 36 
90 126 -89 -4 

-54 107 -109 98 
124 -107 21 -29 
-12 123 -100 107 
104 -109 -87 98 

71 110 0 -23 
95 103 67 -85 
-91 109 -6 -108 
33 74 31 -67 


117 -8 18 110 
84 78 110 -68 
-126 25 -56 112 
112 -2 -49 87 

-112 114 54 -32 
-127 52 -44 -8 
-16 -86 -68 86 
30 71 -111 -7 

97 -114 -96 -14 
-44 -31 100 1 
-71 97 -70 98 
-108 17 -92 82 

31 -4 85 -50 
-125 -54 -54 -54 
-127 40 89 -50 
82 101 -111 -118 

118 87 -49 -37 
40 -25 -113 -52 
-47 53 36 114 
-83 9 -53 -87 

94 -86 -73 -4 
84 -99 86 48 
-2 62 -104 36 
90 126 -89 -4 

-54 107 -109 98 
124 -107 21 -29 
-12 123 -100 107 
104 -109 -87 98 

71 110 0 -23 
95 103 67 -85 
-91 109 -6 -108 
33 74 31 -67 



117 -8 18 110 
84 78 110 -68 
-126 25 -56 112 
112 -2 -49 87 

-112 114 54 -32 
-127 52 -44 -8 
-16 -86 -68 86 
30 71 -111 -7 

97 -114 -96 -14 
-44 -31 100 1 
-71 97 -70 98 
-108 17 -92 82 

31 -4 85 -50 
-125 -54 -54 -54 
-127 40 89 -50 
82 101 -111 -118 

118 87 -49 -37 
40 -25 -113 -52 
-47 53 36 114 
-83 9 -53 -87 

94 -86 -73 -4 
84 -99 86 48 
-2 62 -104 36 
90 126 -89 -4 

-54 107 -109 98 
124 -107 21 -29 
-12 123 -100 107 
104 -109 -87 98 

71 110 0 -23 
95 103 67 -85 
-91 109 -6 -108 
33 74 31 -67 


117 -8 18 110 
84 78 110 -68 
-126 25 -56 112 
112 -2 -49 87 

-112 114 54 -32 
-127 52 -44 -8 
-16 -86 -68 86 
30 71 -111 -7 

97 -114 -96 -14 
-44 -31 100 1 
-71 97 -70 98 
-108 17 -92 82 

31 -4 85 -50 
-125 -54 -54 -54 
-127 40 89 -50 
82 101 -111 -118 

118 87 -49 -37 
40 -25 -113 -52 
-47 53 36 114 
-83 9 -53 -87 

94 -86 -73 -4 
84 -99 86 48 
-2 62 -104 36 
90 126 -89 -4 

-54 107 -109 98 
124 -107 21 -29 
-12 123 -100 107 
104 -109 -87 98 

71 110 0 -23 
95 103 67 -85 
-91 109 -6 -108 
33 74 31 -67 


117 -8 18 110 
84 78 110 -68 
-126 25 -56 112 
112 -2 -49 87 

-112 114 54 -32 
-127 52 -44 -8 
-16 -86 -68 86 
30 71 -111 -7 

97 -114 -96 -14 
-44 -31 100 1 
-71 97 -70 98 
-108 17 -92 82 

31 -4 85 -50 
-125 -54 -54 -54 
-127 40 89 -50 
82 101 -111 -118 

118 87 -49 -37 
40 -25 -113 -52 
-47 53 36 114 
-83 9 -53 -87 

94 -86 -73 -4 
84 -99 86 48 
-2 62 -104 36 
90 126 -89 -4 

-54 107 -109 98 
124 -107 21 -29 
-12 123 -100 107 
104 -109 -87 98 

71 110 0 -23 
95 103 67 -85 
-91 109 -6 -108 
33 74 31 -67 


117 -8 18 110 
84 78 110 -68 
-126 25 -56 112 
112 -2 -49 87 

-112 114 54 -32 
-127 52 -44 -8 
-16 -86 -68 86 
30 71 -111 -7 

97 -114 -96 -14 
-44 -31 100 1 
-71 97 -70 98 
-108 17 -92 82 

31 -4 85 -50 
-125 -54 -54 -54 
-127 40 89 -50 
82 101 -111 -118 

118 87 -49 -37 
40 -25 -113 -52 
-47 53 36 114 
-83 9 -53 -87 

94 -86 -73 -4 
84 -99 86 48 
-2 62 -104 36 
90 126 -89 -4 

-54 107 -109 98 
124 -107 21 -29 
-12 123 -100 107 
104 -109 -87 98 

71 110 0 -23 
95 103 67 -85 
-91 109 -6 -108 
33 74 31 -67 



117 -8 18 110 
84 78 110 -68 
-126 25 -56 112 
112 -2 -49 87 

-112 114 54 -32 
-127 52 -44 -8 
-16 -86 -68 86 
30 71 -111 -7 

97 -114 -96 -14 
-44 -31 100 1 
-71 97 -70 98 
-108 17 -92 82 

31 -4 85 -50 
-125 -54 -54 -54 
-127 40 89 -50 
82 101 -111 -118 

118 87 -49 -37 
40 -25 -113 -52 
-47 53 36 114 
-83 9 -53 -87 

94 -86 -73 -4 
84 -99 86 48 
-2 62 -104 36 
90 126 -89 -4 

-54 107 -109 98 
124 -107 21 -29 
-12 123 -100 107 
104 -109 -87 98 

71 110 0 -23 
95 103 67 -85 
-91 109 -6 -108 
33 74 31 -67 


117 -8 18 110 
84 78 110 -68 
-126 25 -56 112 
112 -2 -49 87 

-112 114 54 -32 
-127 52 -44 -8 
-16 -86 -68 86 
30 71 -111 -7 

97 -114 -96 -14 
-44 -31 100 1 
-71 97 -70 98 
-108 17 -92 82 

31 -4 85 -50 
-125 -54 -54 -54 
-127 40 89 -50 
82 101 -111 -118 

118 87 -49 -37 
40 -25 -113 -52 
-47 53 36 114 
-83 9 -53 -87 

94 -86 -73 -4 
84 -99 86 48 
-2 62 -104 36 
90 126 -89 -4 

-54 107 -109 98 
124 -107 21 -29 
-12 123 -100 107 
104 -109 -87 98 

71 110 0 -23 
95 103 67 -85 
-91 109 -6 -108 
33 74 31 -67 


117 -8 18 110 
84 78 110 -68 
-126 25 -56 112 
112 -2 -49 87 

-112 114 54 -32 
-127 52 -44 -8 
-16 -86 -68 86 
30 71 -111 -7 

97 -114 -96 -14 
-44 -31 100 1 
-71 97 -70 98 
-108 17 -92 82 

31 -4 85 -50 
-125 -54 -54 -54 
-127 40 89 -50 
82 101 -111 -118 

118 87 -49 -37 
40 -25 -113 -52 
-47 53 36 114 
-83 9 -53 -87 

94 -86 -73 -4 
84 -99 86 48 
-2 62 -104 36 
90 126 -89 -4 

-54 107 -109 98 
124 -107 21 -29 
-12 123 -100 107 
104 -109 -87 98 

71 110 0 -23 
95 103 67 -85 
-91 109 -6 -108 
33 74 31 -67 


117 -8 18 110 
84 78 110 -68 
-126 25 -56 112 
112 -2 -49 87 

-112 114 54 -32 
-127 52 -44 -8 
-16 -86 -68 86 
30 71 -111 -7 

97 -114 -96 -14 
-44 -31 100 1 
-71 97 -70 98 
-108 17 -92 82 

31 -4 85 -50 
-125 -54 -54 -54 
-127 40 89 -50 
82 101 -111 -118 

118 87 -49 -37 
40 -25 -113 -52 
-47 53 36 114 
-83 9 -53 -87 

94 -86 -73 -4 
84 -99 86 48 
-2 62 -104 36 
90 126 -89 -4 

-54 107 -109 98 
124 -107 21 -29 
-12 123 -100 107 
104 -109 -87 98 

71 110 0 -23 
95 103 67 -85 
-91 109 -6 -108 
33 74 31 -67 



117 -8 18 110 
84 78 110 -68 
-126 25 -56 112 
112 -2 -49 87 

-112 114 54 -32 
-127 52 -44 -8 
-16 -86 -68 86 
30 71 -111 -7 

97 -114 -96 -14 
-44 -31 100 1 
-71 97 -70 98 
-108 17 -92 82 

31 -4 85 -50 
-125 -54 -54 -54 
-127 40 89 -50 
82 101 -111 -118 

118 87 -49 -37 
40 -25 -113 -52 
-47 53 36 114 
-83 9 -53 -87 

94 -86 -73 -4 
84 -99 86 48 
-2 62 -104 36 
90 126 -89 -4 

-54 107 -109 98 
124 -107 21 -29 
-12 123 -100 107 
104 -109 -87 98 

71 110 0 -23 
95 103 67 -85 
-91 109 -6 -108 
33 74 31 -67 


117 -8 18 110 
84 78 110 -68 
-126 25 -56 112 
112 -2 -49 87 

-112 114 54 -32 
-127 52 -44 -8 
-16 -86 -68 86 
30 71 -111 -7 

97 -114 -96 -14 
-44 -31 100 1 
-71 97 -70 98 
-108 17 -92 82 

31 -4 85 -50 
-125 -54 -54 -54 
-127 40 89 -50 
82 101 -111 -118 

118 87 -49 -37 
40 -25 -113 -52 
-47 53 36 114 
-83 9 -53 -87 

94 -86 -73 -4 
84 -99 86 48 
-2 62 -104 36 
90 126 -89 -4 

-54 107 -109 98 
124 -107 21 -29 
-12 123 -100 107 
104 -109 -87 98 

71 110 0 -23 
95 103 67 -85 
-91 109 -6 -108 
33 74 31 -67 


117 -8 18 110 
84 78 110 -68 
-126 25 -56 112 
112 -2 -49 87 

-112 114 54 -32 
-127 52 -44 -8 
-16 -86 -68 86 
30 71 -111 -7 

97 -114 -96 -14 
-44 -31 100 1 
-71 97 -70 98 
-108 17 -92 82 

31 -4 85 -50 
-125 -54 -54 -54 
-127 40 89 -50 
82 101 -111 -118 

118 87 -49 -37 
40 -25 -113 -52 
-47 53 36 114 
-83 9 -53 -87 

94 -86 -73 -4 
84 -99 86 48 
-2 62 -104 36 
90 126 -89 -4 

-54 107 -109 98 
124 -107 21 -29 
-12 123 -100 107 
104 -109 -87 98 

71 110 0 -23 
95 103 67 -85 
-91 109 -6 -108 
33 74 31 -67 


117 -8 18 110 
84 78 110 -68 
-126 25 -56 112 
112 -2 -49 87 

-112 114 54 -32 
-127 52 -44 -8 
-16 -86 -68 86 
30 71 -111 -7 

97 -114 -96 -14 
-44 -31 100 1 
-71 97 -70 98 
-108 17 -92 82 

31 -4 85 -50 
-125 -54 -54 -54 
-127 40 89 -50 
82 101 -111 -118 

118 87 -49 -37 
40 -25 -113 -52 
-47 53 36 114 
-83 9 -53 -87 

94 -86 -73 -4 
84 -99 86 48 
-2 62 -104 36 
90 126 -89 -4 

-54 107 -109 98 
124 -107 21 -29 
-12 123 -100 107 
104 -109 -87 98 

71 110 0 -23 
95 103 67 -85 
-91 109 -6 -108 
33 74 31 -67 



117 -8 18 110 
84 78 110 -68 
-126 25 -56 112 
112 -2 -49 87 

-112 114 54 -32 
-127 52 -44 -8 
-16 -86 -68 86 
30 71 -111 -7 

97 -114 -96 -14 
-44 -31 100 1 
-71 97 -70 98 
-108 17 -92 82 

31 -4 85 -50 
-125 -54 -54 -54 
-127 40 89 -50 
82 101 -111 -118 

118 87 -49 -37 
40 -25 -113 -52 
-47 53 36 114 
-83 9 -53 -87 

94 -86 -73 -4 
84 -99 86 48 
-2 62 -104 36 
90 126 -89 -4 

-54 107 -109 98 
124 -107 21 -29 
-12 123 -100 107 
104 -109 -87 98 

71 110 0 -23 
95 103 67 -85 
-91 109 -6 -108 
33 74 31 -67 


117 -8 18 110 
84 78 110 -68 
-126 25 -56 112 
112 -2 -49 87 

-112 114 54 -32 
-127 52 -44 -8 
-16 -86 -68 86 
30 71 -111 -7 

97 -114 -96 -14 
-44 -31 100 1 
-71 97 -70 98 
-108 17 -92 82 

31 -4 85 -50 
-125 -54 -54 -54 
-127 40 89 -50 
82 101 -111 -118 

118 87 -49 -37 
40 -25 -113 -52 
-47 53 36 114 
-83 9 -53 -87 

94 -86 -73 -4 
84 -99 86 48 
-2 62 -104 36 
90 126 -89 -4 

-54 107 -109 98 
124 -107 21 -29 
-12 123 -100 107 
104 -109 -87 98 

71 110 0 -23 
95 103 67 -85 
-91 109 -6 -108 
33 74 31 -67 


117 -8 18 110 
84 78 110 -68 
-126 25 -56 112 
112 -2 -49 87 

-112 114 54 -32 
-127 52 -44 -8 
-16 -86 -68 86 
30 71 -111 -7 

97 -114 -96 -14 
-44 -31 100 1 
-71 97 -70 98 
-108 17 -92 82 

31 -4 85 -50 
-125 -54 -54 -54 
-127 40 89 -50 
82 101 -111 -118 

118 87 -49 -37 
40 -25 -113 -52 
-47 53 36 114 
-83 9 -53 -87 

94 -86 -73 -4 
84 -99 86 48 
-2 62 -104 36 
90 126 -89 -4 

-54 107 -109 98 
124 -107 21 -29 
-12 123 -100 107 
104 -109 -87 98 

71 110 0 -23 
95 103 67 -85 
-91 109 -6 -108 
33 74 31 -67 


117 -8 18 110 
84 78 110 -68 
-126 25 -56 112 
112 -2 -49 87 

-112 114 54 -32 
-127 52 -44 -8 
-16 -86 -68 86 
30 71 -111 -7 

97 -114 -96 -14 
-44 -31 100 1 
-71 97 -70 98 
-108 17 -92 82 

31 -4 85 -50 
-125 -54 -54 -54 
-127 40 89 -50 
82 101 -111 -118 

118 87 -49 -37 
40 -25 -113 -52 
-47 53 36 114 
-83 9 -53 -87 

94 -86 -73 -4 
84 -99 86 48 
-2 62 -104 36 
90 126 -89 -4 

-54 107 -109 98 
124 -107 21 -29 
-12 123 -100 107 
104 -109 -87 98 

71 110 0 -23 
95 103 67 -85 
-91 109 -6 -108 
33 74 31 -67 




-55 -7 -71 50 
-102 -120 -61 12 
100 -3 117 48 
91 30 -60 90 

107 -97 -59 34 
-65 -107 55 86 
4 94 115 -65 
32 111 126 -64 

3 -7 -101 -31 
73 35 -15 -52 
127 57 -11 -99 
90 45 20 -13 

-39 116 116 -23 
18 -77 51 -116 
-74 51 38 81 
-22 103 -112 -85 

-39 26 -36 -10 
70 -78 60 123 
104 36 8 36 
-79 99 86 -55 

-53 -119 -127 71 
126 -86 91 -22 
-45 11 -69 38 
62 29 39 19 

-28 -3 -84 60 
-1 -35 -14 111 
42 -44 -59 100 
-125 -39 8 57 

65 67 77 -46 
83 99 102 80 
76 -98 -6 34 
4 -1 114 -10 


-55 -7 -71 50 
-102 -120 -61 12 
100 -3 117 48 
91 30 -60 90 

107 -97 -59 34 
-65 -107 55 86 
4 94 115 -65 
32 111 126 -64 

3 -7 -101 -31 
73 35 -15 -52 
127 57 -11 -99 
90 45 20 -13 

-39 116 116 -23 
18 -77 51 -116 
-74 51 38 81 
-22 103 -112 -85 

-39 26 -36 -10 
70 -78 60 123 
104 36 8 36 
-79 99 86 -55 

-53 -119 -127 71 
126 -86 91 -22 
-45 11 -69 38 
62 29 39 19 

-28 -3 -84 60 
-1 -35 -14 111 
42 -44 -59 100 
-125 -39 8 57 

65 67 77 -46 
83 99 102 80 
76 -98 -6 34 
4 -1 114 -10 


-55 -7 -71 50 
-102 -120 -61 12 
100 -3 117 48 
91 30 -60 90 

107 -97 -59 34 
-65 -107 55 86 
4 94 115 -65 
32 111 126 -64 

3 -7 -101 -31 
73 35 -15 -52 
127 57 -11 -99 
90 45 20 -13 

-39 116 116 -23 
18 -77 51 -116 
-74 51 38 81 
-22 103 -112 -85 

-39 26 -36 -10 
70 -78 60 123 
104 36 8 36 
-79 99 86 -55 

-53 -119 -127 71 
126 -86 91 -22 
-45 11 -69 38 
62 29 39 19 

-28 -3 -84 60 
-1 -35 -14 111 
42 -44 -59 100 
-125 -39 8 57 

65 67 77 -46 
83 99 102 80 
76 -98 -6 34 
4 -1 114 -10 


-55 -7 -71 50 
-102 -120 -61 12 
100 -3 117 48 
91 30 -60 90 

107 -97 -59 34 
-65 -107 55 86 
4 94 115 -65 
32 111 126 -64 

3 -7 -101 -31 
73 35 -15 -52 
127 57 -11 -99 
90 45 20 -13 

-39 116 116 -23 
18 -77 51 -116 
-74 51 38 81 
-22 103 -112 -85 

-39 26 -36 -10 
70 -78 60 123 
104 36 8 36 
-79 99 86 -55 

-53 -119 -127 71 
126 -86 91 -22 
-45 11 -69 38 
62 29 39 19 

-28 -3 -84 60 
-1 -35 -14 111 
42 -44 -59 100 
-125 -39 8 57 

65 67 77 -46 
83 99 102 80 
76 -98 -6 34 
4 -1 114 -10 



-55 -7 -71 50 
-102 -120 -61 12 
100 -3 117 48 
91 30 -60 90 

107 -97 -59 34 
-65 -107 55 86 
4 94 115 -65 
32 111 126 -64 

3 -7 -101 -31 
73 35 -15 -52 
127 57 -11 -99 
90 45 20 -13 

-39 116 116 -23 
18 -77 51 -116 
-74 51 38 81 
-22 103 -112 -85 

-39 26 -36 -10 
70 -78 60 123 
104 36 8 36 
-79 99 86 -55 

-53 -119 -127 71 
126 -86 91 -22 
-45 11 -69 38 
62 29 39 19 

-28 -3 -84 60 
-1 -35 -14 111 
42 -44 -59 100 
-125 -39 8 57 

65 67 77 -46 
83 99 102 80 
76 -98 -6 34 
4 -1 114 -10 


-55 -7 -71 50 
-102 -120 -61 12 
100 -3 117 48 
91 30 -60 90 

107 -97 -59 34 
-65 -107 55 86 
4 94 115 -65 
32 111 126 -64 

3 -7 -101 -31 
73 35 -15 -52 
127 57 -11 -99 
90 45 20 -13 

-39 116 116 -23 
18 -77 51 -116 
-74 51 38 81 
-22 103 -112 -85 

-39 26 -36 -10 
70 -78 60 123 
104 36 8 36 
-79 99 86 -55 

-53 -119 -127 71 
126 -86 91 -22 
-45 11 -69 38 
62 29 39 19 

-28 -3 -84 60 
-1 -35 -14 111 
42 -44 -59 100 
-125 -39 8 57 

65 67 77 -46 
83 99 102 80 
76 -98 -6 34 
4 -1 114 -10 


-55 -7 -71 50 
-102 -120 -61 12 
100 -3 117 48 
91 30 -60 90 

107 -97 -59 34 
-65 -107 55 86 
4 94 115 -65 
32 111 126 -64 

3 -7 -101 -31 
73 35 -15 -52 
127 57 -11 -99 
90 45 20 -13 

-39 116 116 -23 
18 -77 51 -116 
-74 51 38 81 
-22 103 -112 -85 

-39 26 -36 -10 
70 -78 60 123 
104 36 8 36 
-79 99 86 -55 

-53 -119 -127 71 
126 -86 91 -22 
-45 11 -69 38 
62 29 39 19 

-28 -3 -84 60 
-1 -35 -14 111 
42 -44 -59 100 
-125 -39 8 57 

65 67 77 -46 
83 99 102 80 
76 -98 -6 34 
4 -1 114 -10 


-55 -7 -71 50 
-102 -120 -61 12 
100 -3 117 48 
91 30 -60 90 

107 -97 -59 34 
-65 -107 55 86 
4 94 115 -65 
32 111 126 -64 

3 -7 -101 -31 
73 35 -15 -52 
127 57 -11 -99 
90 45 20 -13 

-39 116 116 -23 
18 -77 51 -116 
-74 51 38 81 
-22 103 -112 -85 

-39 26 -36 -10 
70 -78 60 123 
104 36 8 36 
-79 99 86 -55 

-53 -119 -127 71 
126 -86 91 -22 
-45 11 -69 38 
62 29 39 19 

-28 -3 -84 60 
-1 -35 -14 111 
42 -44 -59 100 
-125 -39 8 57 

65 67 77 -46 
83 99 102 80 
76 -98 -6 34 
4 -1 114 -10 



-55 -7 -71 50 
-102 -120 -61 12 
100 -3 117 48 
91 30 -60 90 

107 -97 -59 34 
-65 -107 55 86 
4 94 115 -65 
32 111 126 -64 

3 -7 -101 -31 
73 35 -15 -52 
127 57 -11 -99 
90 45 20 -13 

-39 116 116 -23 
18 -77 51 -116 
-74 51 38 81 
-22 103 -112 -85 

-39 26 -36 -10 
70 -78 60 123 
104 36 8 36 
-79 99 86 -55 

-53 -119 -127 71 
126 -86 91 -22 
-45 11 -69 38 
62 29 39 19 

-28 -3 -84 60 
-1 -35 -14 111 
42 -44 -59 100 
-125 -39 8 57 

65 67 77 -46 
83 99 102 80 
76 -98 -6 34 
4 -1 114 -10 


-55 -7 -71 50 
-102 -120 -61 12 
100 -3 117 48 
91 30 -60 90 

107 -97 -59 34 
-65 -107 55 86 
4 94 115 -65 
32 111 126 -64 

3 -7 -101 -31 
73 35 -15 -52 
127 57 -11 -99 
90 45 20 -13 

-39 116 116 -23 
18 -77 51 -116 
-74 51 38 81 
-22 103 -112 -85 

-39 26 -36 -10 
70 -78 60 123 
104 36 8 36 
-79 99 86 -55 

-53 -119 -127 71 
126 -86 91 -22 
-45 11 -69 38 
62 29 39 19 

-28 -3 -84 60 
-1 -35 -14 111 
42 -44 -59 100 
-125 -39 8 57 

65 67 77 -46 
83 99 102 80 
76 -98 -6 34 
4 -1 114 -10 


-55 -7 -71 50 
-102 -120 -61 12 
100 -3 117 48 
91 30 -60 90 

107 -97 -59 34 
-65 -107 55 86 
4 94 115 -65 
32 111 126 -64 

3 -7 -101 -31 
73 35 -15 -52 
127 57 -11 -99 
90 45 20 -13 

-39 116 116 -23 
18 -77 51 -116 
-74 51 38 81 
-22 103 -112 -85 

-39 26 -36 -10 
70 -78 60 123 
104 36 8 36 
-79 99 86 -55 

-53 -119 -127 71 
126 -86 91 -22 
-45 11 -69 38 
62 29 39 19 

-28 -3 -84 60 
-1 -35 -14 111 
42 -44 -59 100 
-125 -39 8 57 

65 67 77 -46 
83 99 102 80 
76 -98 -6 34 
4 -1 114 -10 


-55 -7 -71 50 
-102 -120 -61 12 
100 -3 117 48 
91 30 -60 90 

107 -97 -59 34 
-65 -107 55 86 
4 94 115 -65 
32 111 126 -64 

3 -7 -101 -31 
73 35 -15 -52 
127 57 -11 -99 
90 45 20 -13 

-39 116 116 -23 
18 -77 51 -116 
-74 51 38 81 
-22 103 -112 -85 

-39 26 -36 -10 
70 -78 60 123 
104 36 8 36 
-79 99 86 -55 

-53 -119 -127 71 
126 -86 91 -22 
-45 11 -69 38 
62 29 39 19 

-28 -3 -84 60 
-1 -35 -14 111 
42 -44 -59 100 
-125 -39 8 57 

65 67 77 -46 
83 99 102 80 
76 -98 -6 34 
4 -1 114 -10 



-55 -7 -71 50 
-102 -120 -61 12 
100 -3 117 48 
91 30 -60 90 

107 -97 -59 34 
-65 -107 55 86 
4 94 115 -65 
32 111 126 -64 

3 -7 -101 -31 
73 35 -15 -52 
127 57 -11 -99 
90 45 20 -13 

-39 116 116 -23 
18 -77 51 -116 
-74 51 38 81 
-22 103 -112 -85 

-39 26 -36 -10 
70 -78 60 123 
104 36 8 36 
-79 99 86 -55 

-53 -119 -127 71 
126 -86 91 -22 
-45 11 -69 38 
62 29 39 19 

-28 -3 -84 60 
-1 -35 -14 111 
42 -44 -59 100 
-125 -39 8 57 

65 67 77 -46 
83 99 102 80 
76 -98 -6 34 
4 -1 114 -10 


-55 -7 -71 50 
-102 -120 -61 12 
100 -3 117 48 
91 30 -60 90 

107 -97 -59 34 
-65 -107 55 86 
4 94 115 -65 
32 111 126 -64 

3 -7 -101 -31 
73 35 -15 -52 
127 57 -11 -99 
90 45 20 -13 

-39 116 116 -23 
18 -77 51 -116 
-74 51 38 81 
-22 103 -112 -85 

-39 26 -36 -10 
70 -78 60 123 
104 36 8 36 
-79 99 86 -55 

-53 -119 -127 71 
126 -86 91 -22 
-45 11 -69 38 
62 29 39 19 

-28 -3 -84 60 
-1 -35 -14 111 
42 -44 -59 100 
-125 -39 8 57 

65 67 77 -46 
83 99 102 80 
76 -98 -6 34 
4 -1 114 -10 


-55 -7 -71 50 
-102 -120 -61 12 
100 -3 117 48 
91 30 -60 90 

107 -97 -59 34 
-65 -107 55 86 
4 94 115 -65 
32 111 126 -64 

3 -7 -101 -31 
73 35 -15 -52 
127 57 -11 -99 
90 45 20 -13 

-39 116 116 -23 
18 -77 51 -116 
-74 51 38 81 
-22 103 -112 -85 

-39 26 -36 -10 
70 -78 60 123 
104 36 8 36 
-79 99 86 -55 

-53 -119 -127 71 
126 -86 91 -22 
-45 11 -69 38 
62 29 39 19 

-28 -3 -84 60 
-1 -35 -14 111 
42 -44 -59 100 
-125 -39 8 57 

65 67 77 -46 
83 99 102 80 
76 -98 -6 34 
4 -1 114 -10 


-55 -7 -71 50 
-102 -120 -61 12 
100 -3 117 48 
91 30 -60 90 

107 -97 -59 34 
-65 -107 55 86 
4 94 115 -65 
32 111 126 -64 

3 -7 -101 -31 
73 35 -15 -52 
127 57 -11 -99 
90 45 20 -13 

-39 116 116 -23 
18 -77 51 -116 
-74 51 38 81 
-22 103 -112 -85 

-39 26 -36 -10 
70 -78 60 123 
104 36 8 36 
-79 99 86 -55 

-53 -119 -127 71 
126 -86 91 -22 
-45 11 -69 38 
62 29 39 19 

-28 -3 -84 60 
-1 -35 -14 111 
42 -44 -59 100 
-125 -39 8 57 

65 67 77 -46 
83 99 102 80 
76 -98 -6 34 
4 -1 114 -10 



-55 -7 -71 50 
-102 -120 -61 12 
100 -3 117 48 
91 30 -60 90 

107 -97 -59 34 
-65 -107 55 86 
4 94 115 -65 
32 111 126 -64 

3 -7 -101 -31 
73 35 -15 -52 
127 57 -11 -99 
90 45 20 -13 

-39 116 116 -23 
18 -77 51 -116 
-74 51 38 81 
-22 103 -112 -85 

-39 26 -36 -10 
70 -78 60 123 
104 36 8 36 
-79 99 86 -55 

-53 -119 -127 71 
126 -86 91 -22 
-45 11 -69 38 
62 29 39 19 

-28 -3 -84 60 
-1 -35 -14 111 
42 -44 -59 100 
-125 -39 8 57 

65 67 77 -46 
83 99 102 80 
76 -98 -6 34 
4 -1 114 -10 


-55 -7 -71 50 
-102 -120 -61 12 
100 -3 117 48 
91 30 -60 90 

107 -97 -59 34 
-65 -107 55 86 
4 94 115 -65 
32 111 126 -64 

3 -7 -101 -31 
73 35 -15 -52 
127 57 -11 -99 
90 45 20 -13 

-39 116 116 -23 
18 -77 51 -116 
-74 51 38 81 
-22 103 -112 -85 

-39 26 -36 -10 
70 -78 60 123 
104 36 8 36 
-79 99 86 -55 

-53 -119 -127 71 
126 -86 91 -22 
-45 11 -69 38 
62 29 39 19 

-28 -3 -84 60 
-1 -35 -14 111 
42 -44 -59 100 
-125 -39 8 57 

65 67 77 -46 
83 99 102 80 
76 -98 -6 34 
4 -1 114 -10 


-55 -7 -71 50 
-102 -120 -61 12 
100 -3 117 48 
91 30 -60 90 

107 -97 -59 34 
-65 -107 55 86 
4 94 115 -65 
32 111 126 -64 

3 -7 -101 -31 
73 35 -15 -52 
127 57 -11 -99 
90 45 20 -13 

-39 116 116 -23 
18 -77 51 -116 
-74 51 38 81 
-22 103 -112 -85 

-39 26 -36 -10 
70 -78 60 123 
104 36 8 36 
-79 99 86 -55 

-53 -119 -127 71 
126 -86 91 -22 
-45 11 -69 38 
62 29 39 19 

-28 -3 -84 60 
-1 -35 -14 111 
42 -44 -59 100 
-125 -39 8 57 

65 67 77 -46 
83 99 102 80 
76 -98 -6 34 
4 -1 114 -10 


-55 -7 -71 50 
-102 -120 -61 12 
100 -3 117 48 
91 30 -60 90 

107 -97 -59 34 
-65 -107 55 86 
4 94 115 -65 
32 111 126 -64 

3 -7 -101 -31 
73 35 -15 -52 
127 57 -11 -99 
90 45 20 -13 

-39 116 116 -23 
18 -77 51 -116 
-74 51 38 81 
-22 103 -112 -85 

-39 26 -36 -10 
70 -78 60 123 
104 36 8 36 
-79 99 86 -55 

-53 -119 -127 71 
126 -86 91 -22 
-45 11 -69 38 
62 29 39 19 

-28 -3 -84 60 
-1 -35 -14 111 
42 -44 -59 100 
-125 -39 8 57 

65 67 77 -46 
83 99 102 80 
76 -98 -6 34 
4 -1 114 -10 



-55 -7 -71 50 
-102 -120 -61 12 
100 -3 117 48 
91 30 -60 90 

107 -97 -59 34 
-65 -107 55 86 
4 94 115 -65 
32 111 126 -64 

3 -7 -101 -31 
73 35 -15 -52 
127 57 -11 -99 
90 45 20 -13 

-39 116 116 -23 
18 -77 51 -116 
-74 51 38 81 
-22 103 -112 -85 

-39 26 -36 -10 
70 -78 60 123 
104 36 8 36 
-79 99 86 -55 

-53 -119 -127 71 
126 -86 91 -22 
-45 11 -69 38 
62 29 39 19 

-28 -3 -84 60 
-1 -35 -14 111 
42 -44 -59 100 
-125 -39 8 57 

65 67 77 -46 
83 99 102 80 
76 -98 -6 34 
4 -1 114 -10 


-55 -7 -71 50 
-102 -120 -61 12 
100 -3 117 48 
91 30 -60 90 

107 -97 -59 34 
-65 -107 55 86 
4 94 115 -65 
32 111 126 -64 

3 -7 -101 -31 
73 35 -15 -52 
127 57 -11 -99 
90 45 20 -13 

-39 116 116 -23 
18 -77 51 -116 
-74 51 38 81 
-22 103 -112 -85 

-39 26 -36 -10 
70 -78 60 123 
104 36 8 36 
-79 99 86 -55 

-53 -119 -127 71 
126 -86 91 -22 
-45 11 -69 38 
62 29 39 19 

-28 -3 -84 60 
-1 -35 -14 111 
42 -44 -59 100 
-125 -39 8 57 

65 67 77 -46 
83 99 102 80 
76 -98 -6 34 
4 -1 114 -10 


-55 -7 -71 50 
-102 -120 -61 12 
100 -3 117 48 
91 30 -60 90 

107 -97 -59 34 
-65 -107 55 86 
4 94 115 -65 
32 111 126 -64 

3 -7 -101 -31 
73 35 -15 -52 
127 57 -11 -99 
90 45 20 -13 

-39 116 116 -23 
18 -77 51 -116 
-74 51 38 81 
-22 103 -112 -85 

-39 26 -36 -10 
70 -78 60 123 
104 36 8 36 
-79 99 86 -55 

-53 -119 -127 71 
126 -86 91 -22 
-45 11 -69 38 
62 29 39 19 

-28 -3 -84 60 
-1 -35 -14 111 
42 -44 -59 100 
-125 -39 8 57 

65 67 77 -46 
83 99 102 80 
76 -98 -6 34 
4 -1 114 -10 


-55 -7 -71 50 
-102 -120 -61 12 
100 -3 117 48 
91 30 -60 90 

107 -97 -59 34 
-65 -107 55 86 
4 94 115 -65 
32 111 126 -64 

3 -7 -101 -31 
73 35 -15 -52 
127 57 -11 -99 
90 45 20 -13 

-39 116 116 -23 
18 -77 51 -116 
-74 51 38 81 
-22 103 -112 -85 

-39 26 -36 -10 
70 -78 60 123 
104 36 8 36 
-79 99 86 -55 

-53 -119 -127 71 
126 -86 91 -22 
-45 11 -69 38 
62 29 39 19 

-28 -3 -84 60 
-1 -35 -14 111 
42 -44 -59 100 
-125 -39 8 57 

65 67 77 -46 
83 99 102 80 
76 -98 -6 34 
4 -1 114 -10 



-55 -7 -71 50 
-102 -120 -61 12 
100 -3 117 48 
91 30 -60 90 

107 -97 -59 34 
-65 -107 55 86 
4 94 115 -65 
32 111 126 -64 

3 -7 -101 -31 
73 35 -15 -52 
127 57 -11 -99 
90 45 20 -13 

-39 116 116 -23 
18 -77 51 -116 
-74 51 38 81 
-22 103 -112 -85 

-39 26 -36 -10 
70 -78 60 123 
104 36 8 36 
-79 99 86 -55 

-53 -119 -127 71 
126 -86 91 -22 
-45 11 -69 38 
62 29 39 19 

-28 -3 -84 60 
-1 -35 -14 111 
42 -44 -59 100 
-125 -39 8 57 

65 67 77 -46 
83 99 102 80 
76 -98 -6 34 
4 -1 114 -10 


-55 -7 -71 50 
-102 -120 -61 12 
100 -3 117 48 
91 30 -60 90 

107 -97 -59 34 
-65 -107 55 86 
4 94 115 -65 
32 111 126 -64 

3 -7 -101 -31 
73 35 -15 -52 
127 57 -11 -99 
90 45 20 -13 

-39 116 116 -23 
18 -77 51 -116 
-74 51 38 81 
-22 103 -112 -85 

-39 26 -36 -10 
70 -78 60 123 
104 36 8 36 
-79 99 86 -55 

-53 -119 -127 71 
126 -86 91 -22 
-45 11 -69 38 
62 29 39 19 

-28 -3 -84 60 
-1 -35 -14 111 
42 -44 -59 100 
-125 -39 8 57 

65 67 77 -46 
83 99 102 80 
76 -98 -6 34 
4 -1 114 -10 


-55 -7 -71 50 
-102 -120 -61 12 
100 -3 117 48 
91 30 -60 90 

107 -97 -59 34 
-65 -107 55 86 
4 94 115 -65 
32 111 126 -64 

3 -7 -101 -31 
73 35 -15 -52 
127 57 -11 -99 
90 45 20 -13 

-39 116 116 -23 
18 -77 51 -116 
-74 51 38 81 
-22 103 -112 -85 

-39 26 -36 -10 
70 -78 60 123 
104 36 8 36 
-79 99 86 -55 

-53 -119 -127 71 
126 -86 91 -22 
-45 11 -69 38 
62 29 39 19 

-28 -3 -84 60 
-1 -35 -14 111 
42 -44 -59 100 
-125 -39 8 57 

65 67 77 -46 
83 99 102 80 
76 -98 -6 34 
4 -1 114 -10 


-55 -7 -71 50 
-102 -120 -61 12 
100 -3 117 48 
91 30 -60 90 

107 -97 -59 34 
-65 -107 55 86 
4 94 115 -65 
32 111 126 -64 

3 -7 -101 -31 
73 35 -15 -52 
127 57 -11 -99 
90 45 20 -13 

-39 116 116 -23 
18 -77 51 -116 
-74 51 38 81 
-22 103 -112 -85 

-39 26 -36 -10 
70 -78 60 123 
104 36 8 36 
-79 99 86 -55 

-53 -119 -127 71 
126 -86 91 -22 
-45 11 -69 38 
62 29 39 19 

-28 -3 -84 60 
-1 -35 -14 111 
42 -44 -59 100 
-125 -39 8 57 

65 67 77 -46 
83 99 102 80 
76 -98 -6 34 
4 -1 114 -10 



-55 -7 -71 50 
-102 -120 -61 12 
100 -3 117 48 
91 30 -60 90 

107 -97 -59 34 
-65 -107 55 86 
4 94 115 -65 
32 111 126 -64 

3 -7 -101 -31 
73 35 -15 -52 
127 57 -11 -99 
90 45 20 -13 

-39 116 116 -23 
18 -77 51 -116 
-74 51 38 81 
-22 103 -112 -85 

-39 26 -36 -10 
70 -78 60 123 
104 36 8 36 
-79 99 86 -55 

-53 -119 -127 71 
126 -86 91 -22 
-45 11 -69 38 
62 29 39 19 

-28 -3 -84 60 
-1 -35 -14 111 
42 -44 -59 100 
-125 -39 8 57 

65 67 77 -46 
83 99 102 80 
76 -98 -6 34 
4 -1 114 -10 


-55 -7 -71 50 
-102 -120 -61 12 
100 -3 117 48 
91 30 -60 90 

107 -97 -59 34 
-65 -107 55 86 
4 94 115 -65 
32 111 126 -64 

3 -7 -101 -31 
73 35 -15 -52 
127 57 -11 -99 
90 45 20 -13 

-39 116 116 -23 
18 -77 51 -116 
-74 51 38 81 
-22 103 -112 -85 

-39 26 -36 -10 
70 -78 60 123 
104 36 8 36 
-79 99 86 -55 

-53 -119 -127 71 
126 -86 91 -22 
-45 11 -69 38 
62 29 39 19 

-28 -3 -84 60 
-1 -35 -14 111 
42 -44 -59 100 
-125 -39 8 57 

65 67 77 -46 
83 99 102 80 
76 -98 -6 34 
4 -1 114 -10 


-55 -7 -71 50 
-102 -120 -61 12 
100 -3 117 48 
91 30 -60 90 

107 -97 -59 34 
-65 -107 55 86 
4 94 115 -65 
32 111 126 -64 

3 -7 -101 -31 
73 35 -15 -52 
127 57 -11 -99 
90 45 20 -13 

-39 116 116 -23 
18 -77 51 -116 
-74 51 38 81 
-22 103 -112 -85 

-39 26 -36 -10 
70 -78 60 123 
104 36 8 36 
-79 99 86 -55 

-53 -119 -127 71 
126 -86 91 -22 
-45 11 -69 38 
62 29 39 19 

-28 -3 -84 60 
-1 -35 -14 111 
42 -44 -59 100 
-125 -39 8 57 

65 67 77 -46 
83 99 102 80 
76 -98 -6 34 
4 -1 114 -10 


-55 -7 -71 50 
-102 -120 -61 12 
100 -3 117 48 
91 30 -60 90 

107 -97 -59 34 
-65 -107 55 86 
4 94 115 -65 
32 111 126 -64 

3 -7 -101 -31 
73 35 -15 -52 
127 57 -11 -99 
90 45 20 -13 

-39 116 116 -23 
18 -77 51 -116 
-74 51 38 81 
-22 103 -112 -85 

-39 26 -36 -10 
70 -78 60 123 
104 36 8 36 
-79 99 86 -55 

-53 -119 -127 71 
126 -86 91 -22 
-45 11 -69 38 
62 29 39 19 

-28 -3 -84 60 
-1 -35 -14 111 
42 -44 -59 100 
-125 -39 8 57 

65 67 77 -46 
83 99 102 80 
76 -98 -6 34 
4 -1 114 -10 



-55 -7 -71 50 
-102 -120 -61 12 
100 -3 117 48 
91 30 -60 90 

107 -97 -59 34 
-65 -107 55 86 
4 94 115 -65 
32 111 126 -64 

3 -7 -101 -31 
73 35 -15 -52 
127 57 -11 -99 
90 45 20 -13 

-39 116 116 -23 
18 -77 51 -116 
-74 51 38 81 
-22 103 -112 -85 

-39 26 -36 -10 
70 -78 60 123 
104 36 8 36 
-79 99 86 -55 

-53 -119 -127 71 
126 -86 91 -22 
-45 11 -69 38 
62 29 39 19 

-28 -3 -84 60 
-1 -35 -14 111 
42 -44 -59 100 
-125 -39 8 57 

65 67 77 -46 
83 99 102 80 
76 -98 -6 34 
4 -1 114 -10 


-55 -7 -71 50 
-102 -120 -61 12 
100 -3 117 48 
91 30 -60 90 

107 -97 -59 34 
-65 -107 55 86 
4 94 115 -65 
32 111 126 -64 

3 -7 -101 -31 
73 35 -15 -52 
127 57 -11 -99 
90 45 20 -13 

-39 116 116 -23 
18 -77 51 -116 
-74 51 38 81 
-22 103 -112 -85 

-39 26 -36 -10 
70 -78 60 123 
104 36 8 36 
-79 99 86 -55 

-53 -119 -127 71 
126 -86 91 -22 
-45 11 -69 38 
62 29 39 19 

-28 -3 -84 60 
-1 -35 -14 111 
42 -44 -59 100 
-125 -39 8 57 

65 67 77 -46 
83 99 102 80 
76 -98 -6 34 
4 -1 114 -10 


-55 -7 -71 50 
-102 -120 -61 12 
100 -3 117 48 
91 30 -60 90 

107 -97 -59 34 
-65 -107 55 86 
4 94 115 -65 
32 111 126 -64 

3 -7 -101 -31 
73 35 -15 -52 
127 57 -11 -99 
90 45 20 -13 

-39 116 116 -23 
18 -77 51 -116 
-74 51 38 81 
-22 103 -112 -85 

-39 26 -36 -10 
70 -78 60 123 
104 36 8 36 
-79 99 86 -55 

-53 -119 -127 71 
126 -86 91 -22 
-45 11 -69 38 
62 29 39 19 

-28 -3 -84 60 
-1 -35 -14 111 
42 -44 -59 100 
-125 -39 8 57 

65 67 77 -46 
83 99 102 80 
76 -98 -6 34 
4 -1 114 -10 


-55 -7 -71 50 
-102 -120 -61 12 
100 -3 117 48 
91 30 -60 90 

107 -97 -59 34 
-65 -107 55 86 
4 94 115 -65 
32 111 126 -64 

3 -7 -101 -31 
73 35 -15 -52 
127 57 -11 -99 
90 45 20 -13 

-39 116 116 -23 
18 -77 51 -116 
-74 51 38 81 
-22 103 -112 -85 

-39 26 -36 -10 
70 -78 60 123 
104 36 8 36 
-79 99 86 -55 

-53 -119 -127 71 
126 -86 91 -22 
-45 11 -69 38 
62 29 39 19 

-28 -3 -84 60 
-1 -35 -14 111 
42 -44 -59 100 
-125 -39 8 57 

65 67 77 -46 
83 99 102 80 
76 -98 -6 34 
4 -1 114 -10 



-55 -7 -71 50 
-102 -120 -61 12 
100 -3 117 48 
91 30 -60 90 

107 -97 -59 34 
-65 -107 55 86 
4 94 115 -65 
32 111 126 -64 

3 -7 -101 -31 
73 35 -15 -52 
127 57 -11 -99 
90 45 20 -13 

-39 116 116 -23 
18 -77 51 -116 
-74 51 38 81 
-22 103 -112 -85 

-39 26 -36 -10 
70 -78 60 123 
104 36 8 36 
-79 99 86 -55 

-53 -119 -127 71 
126 -86 91 -22 
-45 11 -69 38 
62 29 39 19 

-28 -3 -84 60 
-1 -35 -14 111 
42 -44 -59 100 
-125 -39 8 57 

65 67 77 -46 
83 99 102 80 
76 -98 -6 34 
4 -1 114 -10 


-55 -7 -71 50 
-102 -120 -61 12 
100 -3 117 48 
91 30 -60 90 

107 -97 -59 34 
-65 -107 55 86 
4 94 115 -65 
32 111 126 -64 

3 -7 -101 -31 
73 35 -15 -52 
127 57 -11 -99 
90 45 20 -13 

-39 116 116 -23 
18 -77 51 -116 
-74 51 38 81 
-22 103 -112 -85 

-39 26 -36 -10 
70 -78 60 123 
104 36 8 36 
-79 99 86 -55 

-53 -119 -127 71 
126 -86 91 -22 
-45 11 -69 38 
62 29 39 19 

-28 -3 -84 60 
-1 -35 -14 111 
42 -44 -59 100 
-125 -39 8 57 

65 67 77 -46 
83 99 102 80 
76 -98 -6 34 
4 -1 114 -10 


-55 -7 -71 50 
-102 -120 -61 12 
100 -3 117 48 
91 30 -60 90 

107 -97 -59 34 
-65 -107 55 86 
4 94 115 -65 
32 111 126 -64 

3 -7 -101 -31 
73 35 -15 -52 
127 57 -11 -99 
90 45 20 -13 

-39 116 116 -23 
18 -77 51 -116 
-74 51 38 81 
-22 103 -112 -85 

-39 26 -36 -10 
70 -78 60 123 
104 36 8 36 
-79 99 86 -55 

-53 -119 -127 71 
126 -86 91 -22 
-45 11 -69 38 
62 29 39 19 

-28 -3 -84 60 
-1 -35 -14 111 
42 -44 -59 100 
-125 -39 8 57 

65 67 77 -46 
83 99 102 80 
76 -98 -6 34 
4 -1 114 -10 


-55 -7 -71 50 
-102 -120 -61 12 
100 -3 117 48 
91 30 -60 90 

107 -97 -59 34 
-65 -107 55 86 
4 94 115 -65 
32 111 126 -64 

3 -7 -101 -31 
73 35 -15 -52 
127 57 -11 -99 
90 45 20 -13 

-39 116 116 -23 
18 -77 51 -116 
-74 51 38 81 
-22 103 -112 -85 

-39 26 -36 -10 
70 -78 60 123 
104 36 8 36 
-79 99 86 -55 

-53 -119 -127 71 
126 -86 91 -22 
-45 11 -69 38 
62 29 39 19 

-28 -3 -84 60 
-1 -35 -14 111 
42 -44 -59 100 
-125 -39 8 57 

65 67 77 -46 
83 99 102 80 
76 -98 -6 34 
4 -1 114 -10 



-55 -7 -71 50 
-102 -120 -61 12 
100 -3 117 48 
91 30 -60 90 

107 -97 -59 34 
-65 -107 55 86 
4 94 115 -65 
32 111 126 -64 

3 -7 -101 -31 
73 35 -15 -52 
127 57 -11 -99 
90 45 20 -13 

-39 116 116 -23 
18 -77 51 -116 
-74 51 38 81 
-22 103 -112 -85 

-39 26 -36 -10 
70 -78 60 123 
104 36 8 36 
-79 99 86 -55 

-53 -119 -127 71 
126 -86 91 -22 
-45 11 -69 38 
62 29 39 19 

-28 -3 -84 60 
-1 -35 -14 111 
42 -44 -59 100 
-125 -39 8 57 

65 67 77 -46 
83 99 102 80 
76 -98 -6 34 
4 -1 114 -10 


-55 -7 -71 50 
-102 -120 -61 12 
100 -3 117 48 
91 30 -60 90 

107 -97 -59 34 
-65 -107 55 86 
4 94 115 -65 
32 111 126 -64 

3 -7 -101 -31 
73 35 -15 -52 
127 57 -11 -99 
90 45 20 -13 

-39 116 116 -23 
18 -77 51 -116 
-74 51 38 81 
-22 103 -112 -85 

-39 26 -36 -10 
70 -78 60 123 
104 36 8 36 
-79 99 86 -55 

-53 -119 -127 71 
126 -86 91 -22 
-45 11 -69 38 
62 29 39 19 

-28 -3 -84 60 
-1 -35 -14 111 
42 -44 -59 100 
-125 -39 8 57 

65 67 77 -46 
83 99 102 80 
76 -98 -6 34 
4 -1 114 -10 


-55 -7 -71 50 
-102 -120 -61 12 
100 -3 117 48 
91 30 -60 90 

107 -97 -59 34 
-65 -107 55 86 
4 94 115 -65 
32 111 126 -64 

3 -7 -101 -31 
73 35 -15 -52 
127 57 -11 -99 
90 45 20 -13 

-39 116 116 -23 
18 -77 51 -116 
-74 51 38 81 
-22 103 -112 -85 

-39 26 -36 -10 
70 -78 60 123 
104 36 8 36 
-79 99 86 -55 

-53 -119 -127 71 
126 -86 91 -22 
-45 11 -69 38 
62 29 39 19 

-28 -3 -84 60 
-1 -35 -14 111 
42 -44 -59 100 
-125 -39 8 57 

65 67 77 -46 
83 99 102 80 
76 -98 -6 34 
4 -1 114 -10 


-55 -7 -71 50 
-102 -120 -61 12 
100 -3 117 48 
91 30 -60 90 

107 -97 -59 34 
-65 -107 55 86 
4 94 115 -65 
32 111 126 -64 

3 -7 -101 -31 
73 35 -15 -52 
127 57 -11 -99 
90 45 20 -13 

-39 116 116 -23 
18 -77 51 -116 
-74 51 38 81 
-22 103 -112 -85 

-39 26 -36 -10 
70 -78 60 123 
104 36 8 36 
-79 99 86 -55 

-53 -119 -127 71 
126 -86 91 -22 
-45 11 -69 38 
62 29 39 19 

-28 -3 -84 60 
-1 -35 -14 111 
42 -44 -59 100 
-125 -39 8 57 

65 67 77 -46 
83 99 102 80 
76 -98 -6 34 
4 -1 114 -10 



-55 -7 -71 50 
-102 -120 -61 12 
100 -3 117 48 
91 30 -60 90 

107 -97 -59 34 
-65 -107 55 86 
4 94 115 -65 
32 111 126 -64 

3 -7 -101 -31 
73 35 -15 -52 
127 57 -11 -99 
90 45 20 -13 

-39 116 116 -23 
18 -77 51 -116 
-74 51 38 81 
-22 103 -112 -85 

-39 26 -36 -10 
70 -78 60 123 
104 36 8 36 
-79 99 86 -55 

-53 -119 -127 71 
126 -86 91 -22 
-45 11 -69 38 
62 29 39 19 

-28 -3 -84 60 
-1 -35 -14 111 
42 -44 -59 100 
-125 -39 8 57 

65 67 77 -46 
83 99 102 80 
76 -98 -6 34 
4 -1 114 -10 


-55 -7 -71 50 
-102 -120 -61 12 
100 -3 117 48 
91 30 -60 90 

107 -97 -59 34 
-65 -107 55 86 
4 94 115 -65 
32 111 126 -64 

3 -7 -101 -31 
73 35 -15 -52 
127 57 -11 -99 
90 45 20 -13 

-39 116 116 -23 
18 -77 51 -116 
-74 51 38 81 
-22 103 -112 -85 

-39 26 -36 -10 
70 -78 60 123 
104 36 8 36 
-79 99 86 -55 

-53 -119 -127 71 
126 -86 91 -22 
-45 11 -69 38 
62 29 39 19 

-28 -3 -84 60 
-1 -35 -14 111 
42 -44 -59 100 
-125 -39 8 57 

65 67 77 -46 
83 99 102 80 
76 -98 -6 34 
4 -1 114 -10 


-55 -7 -71 50 
-102 -120 -61 12 
100 -3 117 48 
91 30 -60 90 

107 -97 -59 34 
-65 -107 55 86 
4 94 115 -65 
32 111 126 -64 

3 -7 -101 -31 
73 35 -15 -52 
127 57 -11 -99 
90 45 20 -13 

-39 116 116 -23 
18 -77 51 -116 
-74 51 38 81 
-22 103 -112 -85 

-39 26 -36 -10 
70 -78 60 123 
104 36 8 36 
-79 99 86 -55 

-53 -119 -127 71 
126 -86 91 -22 
-45 11 -69 38 
62 29 39 19 

-28 -3 -84 60 
-1 -35 -14 111 
42 -44 -59 100 
-125 -39 8 57 

65 67 77 -46 
83 99 102 80 
76 -98 -6 34 
4 -1 114 -10 


-55 -7 -71 50 
-102 -120 -61 12 
100 -3 117 48 
91 30 -60 90 

107 -97 -59 34 
-65 -107 55 86 
4 94 115 -65 
32 111 126 -64 

3 -7 -101 -31 
73 35 -15 -52 
127 57 -11 -99 
90 45 20 -13 

-39 116 116 -23 
18 -77 51 -116 
-74 51 38 81 
-22 103 -112 -85 

-39 26 -36 -10 
70 -78 60 123 
104 36 8 36 
-79 99 86 -55 

-53 -119 -127 71 
126 -86 91 -22 
-45 11 -69 38 
62 29 39 19 

-28 -3 -84 60 
-1 -35 -14 111 
42 -44 -59 100 
-125 -39 8 57 

65 67 77 -46 
83 99 102 80 
76 -98 -6 34 
4 -1 114 -10 



-55 -7 -71 50 
-102 -120 -61 12 
100 -3 117 48 
91 30 -60 90 

107 -97 -59 34 
-65 -107 55 86 
4 94 115 -65 
32 111 126 -64 

3 -7 -101 -31 
73 35 -15 -52 
127 57 -11 -99 
90 45 20 -13 

-39 116 116 -23 
18 -77 51 -116 
-74 51 38 81 
-22 103 -112 -85 

-39 26 -36 -10 
70 -78 60 123 
104 36 8 36 
-79 99 86 -55 

-53 -119 -127 71 
126 -86 91 -22 
-45 11 -69 38 
62 29 39 19 

-28 -3 -84 60 
-1 -35 -14 111 
42 -44 -59 100 
-125 -39 8 57 

65 67 77 -46 
83 99 102 80 
76 -98 -6 34 
4 -1 114 -10 


-55 -7 -71 50 
-102 -120 -61 12 
100 -3 117 48 
91 30 -60 90 

107 -97 -59 34 
-65 -107 55 86 
4 94 115 -65 
32 111 126 -64 

3 -7 -101 -31 
73 35 -15 -52 
127 57 -11 -99 
90 45 20 -13 

-39 116 116 -23 
18 -77 51 -116 
-74 51 38 81 
-22 103 -112 -85 

-39 26 -36 -10 
70 -78 60 123 
104 36 8 36 
-79 99 86 -55 

-53 -119 -127 71 
126 -86 91 -22 
-45 11 -69 38 
62 29 39 19 

-28 -3 -84 60 
-1 -35 -14 111 
42 -44 -59 100 
-125 -39 8 57 

65 67 77 -46 
83 99 102 80 
76 -98 -6 34 
4 -1 114 -10 


-55 -7 -71 50 
-102 -120 -61 12 
100 -3 117 48 
91 30 -60 90 

107 -97 -59 34 
-65 -107 55 86 
4 94 115 -65 
32 111 126 -64 

3 -7 -101 -31 
73 35 -15 -52 
127 57 -11 -99 
90 45 20 -13 

-39 116 116 -23 
18 -77 51 -116 
-74 51 38 81 
-22 103 -112 -85 

-39 26 -36 -10 
70 -78 60 123 
104 36 8 36 
-79 99 86 -55 

-53 -119 -127 71 
126 -86 91 -22 
-45 11 -69 38 
62 29 39 19 

-28 -3 -84 60 
-1 -35 -14 111 
42 -44 -59 100 
-125 -39 8 57 

65 67 77 -46 
83 99 102 80 
76 -98 -6 34 
4 -1 114 -10 


-55 -7 -71 50 
-102 -120 -61 12 
100 -3 117 48 
91 30 -60 90 

107 -97 -59 34 
-65 -107 55 86 
4 94 115 -65 
32 111 126 -64 

3 -7 -101 -31 
73 35 -15 -52 
127 57 -11 -99 
90 45 20 -13 

-39 116 116 -23 
18 -77 51 -116 
-74 51 38 81 
-22 103 -112 -85 

-39 26 -36 -10 
70 -78 60 123 
104 36 8 36 
-79 99 86 -55 

-53 -119 -127 71 
126 -86 91 -22 
-45 11 -69 38 
62 29 39 19 

-28 -3 -84 60 
-1 -35 -14 111 
42 -44 -59 100 
-125 -39 8 57 

65 67 77 -46 
83 99 102 80 
76 -98 -6 34 
4 -1 114 -10 




37 46 124 80 
-2 24 119 19 
37 -72 95 -98 
92 77 11 -109 

105 68 -103 -87 
79 80 71 120 
28 -2 -114 -13 
108 123 -93 89 

39 -66 73 -92 
125 4 19 -110 
-37 66 31 -67 
-6 107 -111 1 

-87 -16 64 116 
-63 69 -26 54 
22 -28 -42 98 
-102 -33 109 -115 

-36 -97 6 -96 
-121 60 94 -17 
50 -115 -120 3 
52 -42 -47 94 

99 -20 11 25 
-102 -85 106 -123 
0 -74 87 -42 
59 17 65 -62 

-26 -58 -37 103 
-126 -26 4 120 
122 19 50 52 
51 -57 -77 120 

-92 -100 10 -25 
22 17 -112 85 
-30 -94 66 63 
-21 -33 -67 23 


37 46 124 80 
-2 24 119 19 
37 -72 95 -98 
92 77 11 -109 

105 68 -103 -87 
79 80 71 120 
28 -2 -114 -13 
108 123 -93 89 

39 -66 73 -92 
125 4 19 -110 
-37 66 31 -67 
-6 107 -111 1 

-87 -16 64 116 
-63 69 -26 54 
22 -28 -42 98 
-102 -33 109 -115 

-36 -97 6 -96 
-121 60 94 -17 
50 -115 -120 3 
52 -42 -47 94 

99 -20 11 25 
-102 -85 106 -123 
0 -74 87 -42 
59 17 65 -62 

-26 -58 -37 103 
-126 -26 4 120 
122 19 50 52 
51 -57 -77 120 

-92 -100 10 -25 
22 17 -112 85 
-30 -94 66 63 
-21 -33 -67 23 


37 46 124 80 
-2 24 119 19 
37 -72 95 -98 
92 77 11 -109 

105 68 -103 -87 
79 80 71 120 
28 -2 -114 -13 
108 123 -93 89 

39 -66 73 -92 
125 4 19 -110 
-37 66 31 -67 
-6 107 -111 1 

-87 -16 64 116 
-63 69 -26 54 
22 -28 -42 98 
-102 -33 109 -115 

-36 -97 6 -96 
-121 60 94 -17 
50 -115 -120 3 
52 -42 -47 94 

99 -20 11 25 
-102 -85 106 -123 
0 -74 87 -42 
59 17 65 -62 

-26 -58 -37 103 
-126 -26 4 120 
122 19 50 52 
51 -57 -77 120 

-92 -100 10 -25 
22 17 -112 85 
-30 -94 66 63 
-21 -33 -67 23 


37 46 124 80 
-2 24 119 19 
37 -72 95 -98 
92 77 11 -109 

105 68 -103 -87 
79 80 71 120 
28 -2 -114 -13 
108 123 -93 89 

39 -66 73 -92 
125 4 19 -110 
-37 66 31 -67 
-6 107 -111 1 

-87 -16 64 116 
-63 69 -26 54 
22 -28 -42 98 
-102 -33 109 -115 

-36 -97 6 -96 
-121 60 94 -17 
50 -115 -120 3 
52 -42 -47 94 

99 -20 11 25 
-102 -85 106 -123 
0 -74 87 -42 
59 17 65 -62 

-26 -58 -37 103 
-126 -26 4 120 
122 19 50 52 
51 -57 -77 120 

-92 -100 10 -25 
22 17 -112 85 
-30 -94 66 63 
-21 -33 -67 23 



37 46 124 80 
-2 24 119 19 
37 -72 95 -98 
92 77 11 -109 

105 68 -103 -87 
79 80 71 120 
28 -2 -114 -13 
108 123 -93 89 

39 -66 73 -92 
125 4 19 -110 
-37 66 31 -67 
-6 107 -111 1 

-87 -16 64 116 
-63 69 -26 54 
22 -28 -42 98 
-102 -33 109 -115 

-36 -97 6 -96 
-121 60 94 -17 
50 -115 -120 3 
52 -42 -47 94 

99 -20 11 25 
-102 -85 106 -123 
0 -74 87 -42 
59 17 65 -62 

-26 -58 -37 103 
-126 -26 4 120 
122 19 50 52 
51 -57 -77 120 

-92 -100 10 -25 
22 17 -112 85 
-30 -94 66 63 
-21 -33 -67 23 


37 46 124 80 
-2 24 119 19 
37 -72 95 -98 
92 77 11 -109 

105 68 -103 -87 
79 80 71 120 
28 -2 -114 -13 
108 123 -93 89 

39 -66 73 -92 
125 4 19 -110 
-37 66 31 -67 
-6 107 -111 1 

-87 -16 64 116 
-63 69 -26 54 
22 -28 -42 98 
-102 -33 109 -115 

-36 -97 6 -96 
-121 60 94 -17 
50 -115 -120 3 
52 -42 -47 94 

99 -20 11 25 
-102 -85 106 -123 
0 -74 87 -42 
59 17 65 -62 

-26 -58 -37 103 
-126 -26 4 120 
122 19 50 52 
51 -57 -77 120 

-92 -100 10 -25 
22 17 -112 85 
-30 -94 66 63 
-21 -33 -67 23 


37 46 124 80 
-2 24 119 19 
37 -72 95 -98 
92 77 11 -109 

105 68 -103 -87 
79 80 71 120 
28 -2 -114 -13 
108 123 -93 89 

39 -66 73 -92 
125 4 19 -110 
-37 66 31 -67 
-6 107 -111 1 

-87 -16 64 116 
-63 69 -26 54 
22 -28 -42 98 
-102 -33 109 -115 

-36 -97 6 -96 
-121 60 94 -17 
50 -115 -120 3 
52 -42 -47 94 

99 -20 11 25 
-102 -85 106 -123 
0 -74 87 -42 
59 17 65 -62 

-26 -58 -37 103 
-126 -26 4 120 
122 19 50 52 
51 -57 -77 120 

-92 -100 10 -25 
22 17 -112 85 
-30 -94 66 63 
-21 -33 -67 23 


37 46 124 80 
-2 24 119 19 
37 -72 95 -98 
92 77 11 -109 

105 68 -103 -87 
79 80 71 120 
28 -2 -114 -13 
108 123 -93 89 

39 -66 73 -92 
125 4 19 -110 
-37 66 31 -67 
-6 107 -111 1 

-87 -16 64 116 
-63 69 -26 54 
22 -28 -42 98 
-102 -33 109 -115 

-36 -97 6 -96 
-121 60 94 -17 
50 -115 -120 3 
52 -42 -47 94 

99 -20 11 25 
-102 -85 106 -123 
0 -74 87 -42 
59 17 65 -62 

-26 -58 -37 103 
-126 -26 4 120 
122 19 50 52 
51 -57 -77 120 

-92 -100 10 -25 
22 17 -112 85 
-30 -94 66 63 
-21 -33 -67 23 



37 46 124 80 
-2 24 119 19 
37 -72 95 -98 
92 77 11 -109 

105 68 -103 -87 
79 80 71 120 
28 -2 -114 -13 
108 123 -93 89 

39 -66 73 -92 
125 4 19 -110 
-37 66 31 -67 
-6 107 -111 1 

-87 -16 64 116 
-63 69 -26 54 
22 -28 -42 98 
-102 -33 109 -115 

-36 -97 6 -96 
-121 60 94 -17 
50 -115 -120 3 
52 -42 -47 94 

99 -20 11 25 
-102 -85 106 -123 
0 -74 87 -42 
59 17 65 -62 

-26 -58 -37 103 
-126 -26 4 120 
122 19 50 52 
51 -57 -77 120 

-92 -100 10 -25 
22 17 -112 85 
-30 -94 66 63 
-21 -33 -67 23 


37 46 124 80 
-2 24 119 19 
37 -72 95 -98 
92 77 11 -109 

105 68 -103 -87 
79 80 71 120 
28 -2 -114 -13 
108 123 -93 89 

39 -66 73 -92 
125 4 19 -110 
-37 66 31 -67 
-6 107 -111 1 

-87 -16 64 116 
-63 69 -26 54 
22 -28 -42 98 
-102 -33 109 -115 

-36 -97 6 -96 
-121 60 94 -17 
50 -115 -120 3 
52 -42 -47 94 

99 -20 11 25 
-102 -85 106 -123 
0 -74 87 -42 
59 17 65 -62 

-26 -58 -37 103 
-126 -26 4 120 
122 19 50 52 
51 -57 -77 120 

-92 -100 10 -25 
22 17 -112 85 
-30 -94 66 63 
-21 -33 -67 23 


37 46 124 80 
-2 24 119 19 
37 -72 95 -98 
92 77 11 -109 

105 68 -103 -87 
79 80 71 120 
28 -2 -114 -13 
108 123 -93 89 

39 -66 73 -92 
125 4 19 -110 
-37 66 31 -67 
-6 107 -111 1 

-87 -16 64 116 
-63 69 -26 54 
22 -28 -42 98 
-102 -33 109 -115 

-36 -97 6 -96 
-121 60 94 -17 
50 -115 -120 3 
52 -42 -47 94 

99 -20 11 25 
-102 -85 106 -123 
0 -74 87 -42 
59 17 65 -62 

-26 -58 -37 103 
-126 -26 4 120 
122 19 50 52 
51 -57 -77 120 

-92 -100 10 -25 
22 17 -112 85 
-30 -94 66 63 
-21 -33 -67 23 


37 46 124 80 
-2 24 119 19 
37 -72 95 -98 
92 77 11 -109 

105 68 -103 -87 
79 80 71 120 
28 -2 -114 -13 
108 123 -93 89 

39 -66 73 -92 
125 4 19 -110 
-37 66 31 -67 
-6 107 -111 1 

-87 -16 64 116 
-63 69 -26 54 
22 -28 -42 98 
-102 -33 109 -115 

-36 -97 6 -96 
-121 60 94 -17 
50 -115 -120 3 
52 -42 -47 94 

99 -20 11 25 
-102 -85 106 -123 
0 -74 87 -42 
59 17 65 -62 

-26 -58 -37 103 
-126 -26 4 120 
122 19 50 52 
51 -57 -77 120 

-92 -100 10 -25 
22 17 -112 85 
-30 -94 66 63 
-21 -33 -67 23 



37 46 124 80 
-2 24 119 19 
37 -72 95 -98 
92 77 11 -109 

105 68 -103 -87 
79 80 71 120 
28 -2 -114 -13 
108 123 -93 89 

39 -66 73 -92 
125 4 19 -110 
-37 66 31 -67 
-6 107 -111 1 

-87 -16 64 116 
-63 69 -26 54 
22 -28 -42 98 
-102 -33 109 -115 

-36 -97 6 -96 
-121 60 94 -17 
50 -115 -120 3 
52 -42 -47 94 

99 -20 11 25 
-102 -85 106 -123 
0 -74 87 -42 
59 17 65 -62 

-26 -58 -37 103 
-126 -26 4 120 
122 19 50 52 
51 -57 -77 120 

-92 -100 10 -25 
22 17 -112 85 
-30 -94 66 63 
-21 -33 -67 23 


37 46 124 80 
-2 24 119 19 
37 -72 95 -98 
92 77 11 -109 

105 68 -103 -87 
79 80 71 120 
28 -2 -114 -13 
108 123 -93 89 

39 -66 73 -92 
125 4 19 -110 
-37 66 31 -67 
-6 107 -111 1 

-87 -16 64 116 
-63 69 -26 54 
22 -28 -42 98 
-102 -33 109 -115 

-36 -97 6 -96 
-121 60 94 -17 
50 -115 -120 3 
52 -42 -47 94 

99 -20 11 25 
-102 -85 106 -123 
0 -74 87 -42 
59 17 65 -62 

-26 -58 -37 103 
-126 -26 4 120 
122 19 50 52 
51 -57 -77 120 

-92 -100 10 -25 
22 17 -112 85 
-30 -94 66 63 
-21 -33 -67 23 


37 46 124 80 
-2 24 119 19 
37 -72 95 -98 
92 77 11 -109 

105 68 -103 -87 
79 80 71 120 
28 -2 -114 -13 
108 123 -93 89 

39 -66 73 -92 
125 4 19 -110 
-37 66 31 -67 
-6 107 -111 1 

-87 -16 64 116 
-63 69 -26 54 
22 -28 -42 98 
-102 -33 109 -115 

-36 -97 6 -96 
-121 60 94 -17 
50 -115 -120 3 
52 -42 -47 94 

99 -20 11 25 
-102 -85 106 -123 
0 -74 87 -42 
59 17 65 -62 

-26 -58 -37 103 
-126 -26 4 120 
122 19 50 52 
51 -57 -77 120 

-92 -100 10 -25 
22 17 -112 85 
-30 -94 66 63 
-21 -33 -67 23 


37 46 124 80 
-2 24 119 19 
37 -72 95 -98 
92 77 11 -109 

105 68 -103 -87 
79 80 71 120 
28 -2 -114 -13 
108 123 -93 89 

39 -66 73 -92 
125 4 19 -110 
-37 66 31 -67 
-6 107 -111 1 

-87 -16 64 116 
-63 69 -26 54 
22 -28 -42 98 
-102 -33 109 -115 

-36 -97 6 -96 
-121 60 94 -17 
50 -115 -120 3 
52 -42 -47 94 

99 -20 11 25 
-102 -85 106 -123 
0 -74 87 -42 
59 17 65 -62 

-26 -58 -37 103 
-126 -26 4 120 
122 19 50 52 
51 -57 -77 120 

-92 -100 10 -25 
22 17 -112 85 
-30 -94 66 63 
-21 -33 -67 23 



37 46 124 80 
-2 24 119 19 
37 -72 95 -98 
92 77 11 -109 

105 68 -103 -87 
79 80 71 120 
28 -2 -114 -13 
108 123 -93 89 

39 -66 73 -92 
125 4 19 -110 
-37 66 31 -67 
-6 107 -111 1 

-87 -16 64 116 
-63 69 -26 54 
22 -28 -42 98 
-102 -33 109 -115 

-36 -97 6 -96 
-121 60 94 -17 
50 -115 -120 3 
52 -42 -47 94 

99 -20 11 25 
-102 -85 106 -123 
0 -74 87 -42 
59 17 65 -62 

-26 -58 -37 103 
-126 -26 4 120 
122 19 50 52 
51 -57 -77 120 

-92 -100 10 -25 
22 17 -112 85 
-30 -94 66 63 
-21 -33 -67 23 


37 46 124 80 
-2 24 119 19 
37 -72 95 -98 
92 77 11 -109 

105 68 -103 -87 
79 80 71 120 
28 -2 -114 -13 
108 123 -93 89 

39 -66 73 -92 
125 4 19 -110 
-37 66 31 -67 
-6 107 -111 1 

-87 -16 64 116 
-63 69 -26 54 
22 -28 -42 98 
-102 -33 109 -115 

-36 -97 6 -96 
-121 60 94 -17 
50 -115 -120 3 
52 -42 -47 94 

99 -20 11 25 
-102 -85 106 -123 
0 -74 87 -42 
59 17 65 -62 

-26 -58 -37 103 
-126 -26 4 120 
122 19 50 52 
51 -57 -77 120 

-92 -100 10 -25 
22 17 -112 85 
-30 -94 66 63 
-21 -33 -67 23 


37 46 124 80 
-2 24 119 19 
37 -72 95 -98 
92 77 11 -109 

105 68 -103 -87 
79 80 71 120 
28 -2 -114 -13 
108 123 -93 89 

39 -66 73 -92 
125 4 19 -110 
-37 66 31 -67 
-6 107 -111 1 

-87 -16 64 116 
-63 69 -26 54 
22 -28 -42 98 
-102 -33 109 -115 

-36 -97 6 -96 
-121 60 94 -17 
50 -115 -120 3 
52 -42 -47 94 

99 -20 11 25 
-102 -85 106 -123 
0 -74 87 -42 
59 17 65 -62 

-26 -58 -37 103 
-126 -26 4 120 
122 19 50 52 
51 -57 -77 120 

-92 -100 10 -25 
22 17 -112 85 
-30 -94 66 63 
-21 -33 -67 23 


37 46 124 80 
-2 24 119 19 
37 -72 95 -98 
92 77 11 -109 

105 68 -103 -87 
79 80 71 120 
28 -2 -114 -13 
108 123 -93 89 

39 -66 73 -92 
125 4 19 -110 
-37 66 31 -67 
-6 107 -111 1 

-87 -16 64 116 
-63 69 -26 54 
22 -28 -42 98 
-102 -33 109 -115 

-36 -97 6 -96 
-121 60 94 -17 
50 -115 -120 3 
52 -42 -47 94 

99 -20 11 25 
-102 -85 106 -123 
0 -74 87 -42 
59 17 65 -62 

-26 -58 -37 103 
-126 -26 4 120 
122 19 50 52 
51 -57 -77 120 

-92 -100 10 -25 
22 17 -112 85 
-30 -94 66 63 
-21 -33 -67 23 



37 46 124 80 
-2 24 119 19 
37 -72 95 -98 
92 77 11 -109 

105 68 -103 -87 
79 80 71 120 
28 -2 -114 -13 
108 123 -93 89 

39 -66 73 -92 
125 4 19 -110 
-37 66 31 -67 
-6 107 -111 1 

-87 -16 64 116 
-63 69 -26 54 
22 -28 -42 98 
-102 -33 109 -115 

-36 -97 6 -96 
-121 60 94 -17 
50 -115 -120 3 
52 -42 -47 94 

99 -20 11 25 
-102 -85 106 -123 
0 -74 87 -42 
59 17 65 -62 

-26 -58 -37 103 
-126 -26 4 120 
122 19 50 52 
51 -57 -77 120 

-92 -100 10 -25 
22 17 -112 85 
-30 -94 66 63 
-21 -33 -67 23 


37 46 124 80 
-2 24 119 19 
37 -72 95 -98 
92 77 11 -109 

105 68 -103 -87 
79 80 71 120 
28 -2 -114 -13 
108 123 -93 89 

39 -66 73 -92 
125 4 19 -110 
-37 66 31 -67 
-6 107 -111 1 

-87 -16 64 116 
-63 69 -26 54 
22 -28 -42 98 
-102 -33 109 -115 

-36 -97 6 -96 
-121 60 94 -17 
50 -115 -120 3 
52 -42 -47 94 

99 -20 11 25 
-102 -85 106 -123 
0 -74 87 -42 
59 17 65 -62 

-26 -58 -37 103 
-126 -26 4 120 
122 19 50 52 
51 -57 -77 120 

-92 -100 10 -25 
22 17 -112 85 
-30 -94 66 63 
-21 -33 -67 23 


37 46 124 80 
-2 24 119 19 
37 -72 95 -98 
92 77 11 -109 

105 68 -103 -87 
79 80 71 120 
28 -2 -114 -13 
108 123 -93 89 

39 -66 73 -92 
125 4 19 -110 
-37 66 31 -67 
-6 107 -111 1 

-87 -16 64 116 
-63 69 -26 54 
22 -28 -42 98 
-102 -33 109 -115 

-36 -97 6 -96 
-121 60 94 -17 
50 -115 -120 3 
52 -42 -47 94 

99 -20 11 25 
-102 -85 106 -123 
0 -74 87 -42 
59 17 65 -62 

-26 -58 -37 103 
-126 -26 4 120 
122 19 50 52 
51 -57 -77 120 

-92 -100 10 -25 
22 17 -112 85 
-30 -94 66 63 
-21 -33 -67 23 


37 46 124 80 
-2 24 119 19 
37 -72 95 -98 
92 77 11 -109 

105 68 -103 -87 
79 80 71 120 
28 -2 -114 -13 
108 123 -93 89 

39 -66 73 -92 
125 4 19 -110 
-37 66 31 -67 
-6 107 -111 1 

-87 -16 64 116 
-63 69 -26 54 
22 -28 -42 98 
-102 -33 109 -115 

-36 -97 6 -96 
-121 60 94 -17 
50 -115 -120 3 
52 -42 -47 94 

99 -20 11 25 
-102 -85 106 -123 
0 -74 87 -42 
59 17 65 -62 

-26 -58 -37 103 
-126 -26 4 120 
122 19 50 52 
51 -57 -77 120 

-92 -100 10 -25 
22 17 -112 85 
-30 -94 66 63 
-21 -33 -67 23 



37 46 124 80 
-2 24 119 19 
37 -72 95 -98 
92 77 11 -109 

105 68 -103 -87 
79 80 71 120 
28 -2 -114 -13 
108 123 -93 89 

39 -66 73 -92 
125 4 19 -110 
-37 66 31 -67 
-6 107 -111 1 

-87 -16 64 116 
-63 69 -26 54 
22 -28 -42 98 
-102 -33 109 -115 

-36 -97 6 -96 
-121 60 94 -17 
50 -115 -120 3 
52 -42 -47 94 

99 -20 11 25 
-102 -85 106 -123 
0 -74 87 -42 
59 17 65 -62 

-26 -58 -37 103 
-126 -26 4 120 
122 19 50 52 
51 -57 -77 120 

-92 -100 10 -25 
22 17 -112 85 
-30 -94 66 63 
-21 -33 -67 23 


37 46 124 80 
-2 24 119 19 
37 -72 95 -98 
92 77 11 -109 

105 68 -103 -87 
79 80 71 120 
28 -2 -114 -13 
108 123 -93 89 

39 -66 73 -92 
125 4 19 -110 
-37 66 31 -67 
-6 107 -111 1 

-87 -16 64 116 
-63 69 -26 54 
22 -28 -42 98 
-102 -33 109 -115 

-36 -97 6 -96 
-121 60 94 -17 
50 -115 -120 3 
52 -42 -47 94 

99 -20 11 25 
-102 -85 106 -123 
0 -74 87 -42 
59 17 65 -62 

-26 -58 -37 103 
-126 -26 4 120 
122 19 50 52 
51 -57 -77 120 

-92 -100 10 -25 
22 17 -112 85 
-30 -94 66 63 
-21 -33 -67 23 


37 46 124 80 
-2 24 119 19 
37 -72 95 -98 
92 77 11 -109 

105 68 -103 -87 
79 80 71 120 
28 -2 -114 -13 
108 123 -93 89 

39 -66 73 -92 
125 4 19 -110 
-37 66 31 -67 
-6 107 -111 1 

-87 -16 64 116 
-63 69 -26 54 
22 -28 -42 98 
-102 -33 109 -115 

-36 -97 6 -96 
-121 60 94 -17 
50 -115 -120 3 
52 -42 -47 94 

99 -20 11 25 
-102 -85 106 -123 
0 -74 87 -42 
59 17 65 -62 

-26 -58 -37 103 
-126 -26 4 120 
122 19 50 52 
51 -57 -77 120 

-92 -100 10 -25 
22 17 -112 85 
-30 -94 66 63 
-21 -33 -67 23 


37 46 124 80 
-2 24 119 19 
37 -72 95 -98 
92 77 11 -109 

105 68 -103 -87 
79 80 71 120 
28 -2 -114 -13 
108 123 -93 89 

39 -66 73 -92 
125 4 19 -110 
-37 66 31 -67 
-6 107 -111 1 

-87 -16 64 116 
-63 69 -26 54 
22 -28 -42 98 
-102 -33 109 -115 

-36 -97 6 -96 
-121 60 94 -17 
50 -115 -120 3 
52 -42 -47 94 

99 -20 11 25 
-102 -85 106 -123 
0 -74 87 -42 
59 17 65 -62 

-26 -58 -37 103 
-126 -26 4 120 
122 19 50 52 
51 -57 -77 120 

-92 -100 10 -25 
22 17 -112 85 
-30 -94 66 63 
-21 -33 -67 23 



37 46 124 80 
-2 24 119 19 
37 -72 95 -98 
92 77 11 -109 

105 68 -103 -87 
79 80 71 120 
28 -2 -114 -13 
108 123 -93 89 

39 -66 73 -92 
125 4 19 -110 
-37 66 31 -67 
-6 107 -111 1 

-87 -16 64 116 
-63 69 -26 54 
22 -28 -42 98 
-102 -33 109 -115 

-36 -97 6 -96 
-121 60 94 -17 
50 -115 -120 3 
52 -42 -47 94 

99 -20 11 25 
-102 -85 106 -123 
0 -74 87 -42 
59 17 65 -62 

-26 -58 -37 103 
-126 -26 4 120 
122 19 50 52 
51 -57 -77 120 

-92 -100 10 -25 
22 17 -112 85 
-30 -94 66 63 
-21 -33 -67 23 


37 46 124 80 
-2 24 119 19 
37 -72 95 -98 
92 77 11 -109 

105 68 -103 -87 
79 80 71 120 
28 -2 -114 -13 
108 123 -93 89 

39 -66 73 -92 
125 4 19 -110 
-37 66 31 -67 
-6 107 -111 1 

-87 -16 64 116 
-63 69 -26 54 
22 -28 -42 98 
-102 -33 109 -115 

-36 -97 6 -96 
-121 60 94 -17 
50 -115 -120 3 
52 -42 -47 94 

99 -20 11 25 
-102 -85 106 -123 
0 -74 87 -42 
59 17 65 -62 

-26 -58 -37 103 
-126 -26 4 120 
122 19 50 52 
51 -57 -77 120 

-92 -100 10 -25 
22 17 -112 85 
-30 -94 66 63 
-21 -33 -67 23 


37 46 124 80 
-2 24 119 19 
37 -72 95 -98 
92 77 11 -109 

105 68 -103 -87 
79 80 71 120 
28 -2 -114 -13 
108 123 -93 89 

39 -66 73 -92 
125 4 19 -110 
-37 66 31 -67 
-6 107 -111 1 

-87 -16 64 116 
-63 69 -26 54 
22 -28 -42 98 
-102 -33 109 -115 

-36 -97 6 -96 
-121 60 94 -17 
50 -115 -120 3 
52 -42 -47 94 

99 -20 11 25 
-102 -85 106 -123 
0 -74 87 -42 
59 17 65 -62 

-26 -58 -37 103 
-126 -26 4 120 
122 19 50 52 
51 -57 -77 120 

-92 -100 10 -25 
22 17 -112 85 
-30 -94 66 63 
-21 -33 -67 23 


37 46 124 80 
-2 24 119 19 
37 -72 95 -98 
92 77 11 -109 

105 68 -103 -87 
79 80 71 120 
28 -2 -114 -13 
108 123 -93 89 

39 -66 73 -92 
125 4 19 -110 
-37 66 31 -67 
-6 107 -111 1 

-87 -16 64 116 
-63 69 -26 54 
22 -28 -42 98 
-102 -33 109 -115 

-36 -97 6 -96 
-121 60 94 -17 
50 -115 -120 3 
52 -42 -47 94 

99 -20 11 25 
-102 -85 106 -123 
0 -74 87 -42 
59 17 65 -62 

-26 -58 -37 103 
-126 -26 4 120 
122 19 50 52 
51 -57 -77 120 

-92 -100 10 -25 
22 17 -112 85 
-30 -94 66 63 
-21 -33 -67 23 



37 46 124 80 
-2 24 119 19 
37 -72 95 -98 
92 77 11 -109 

105 68 -103 -87 
79 80 71 120 
28 -2 -114 -13 
108 123 -93 89 

39 -66 73 -92 
125 4 19 -110 
-37 66 31 -67 
-6 107 -111 1 

-87 -16 64 116 
-63 69 -26 54 
22 -28 -42 98 
-102 -33 109 -115 

-36 -97 6 -96 
-121 60 94 -17 
50 -115 -120 3 
52 -42 -47 94 

99 -20 11 25 
-102 -85 106 -123 
0 -74 87 -42 
59 17 65 -62 

-26 -58 -37 103 
-126 -26 4 120 
122 19 50 52 
51 -57 -77 120 

-92 -100 10 -25 
22 17 -112 85 
-30 -94 66 63 
-21 -33 -67 23 


37 46 124 80 
-2 24 119 19 
37 -72 95 -98 
92 77 11 -109 

105 68 -103 -87 
79 80 71 120 
28 -2 -114 -13 
108 123 -93 89 

39 -66 73 -92 
125 4 19 -110 
-37 66 31 -67 
-6 107 -111 1 

-87 -16 64 116 
-63 69 -26 54 
22 -28 -42 98 
-102 -33 109 -115 

-36 -97 6 -96 
-121 60 94 -17 
50 -115 -120 3 
52 -42 -47 94 

99 -20 11 25 
-102 -85 106 -123 
0 -74 87 -42 
59 17 65 -62 

-26 -58 -37 103 
-126 -26 4 120 
122 19 50 52 
51 -57 -77 120 

-92 -100 10 -25 
22 17 -112 85 
-30 -94 66 63 
-21 -33 -67 23 


37 46 124 80 
-2 24 119 19 
37 -72 95 -98 
92 77 11 -109 

105 68 -103 -87 
79 80 71 120 
28 -2 -114 -13 
108 123 -93 89 

39 -66 73 -92 
125 4 19 -110 
-37 66 31 -67 
-6 107 -111 1 

-87 -16 64 116 
-63 69 -26 54 
22 -28 -42 98 
-102 -33 109 -115 

-36 -97 6 -96 
-121 60 94 -17 
50 -115 -120 3 
52 -42 -47 94 

99 -20 11 25 
-102 -85 106 -123 
0 -74 87 -42 
59 17 65 -62 

-26 -58 -37 103 
-126 -26 4 120 
122 19 50 52 
51 -57 -77 120 

-92 -100 10 -25 
22 17 -112 85 
-30 -94 66 63 
-21 -33 -67 23 


37 46 124 80 
-2 24 119 19 
37 -72 95 -98 
92 77 11 -109 

105 68 -103 -87 
79 80 71 120 
28 -2 -114 -13 
108 123 -93 89 

39 -66 73 -92 
125 4 19 -110 
-37 66 31 -67 
-6 107 -111 1 

-87 -16 64 116 
-63 69 -26 54 
22 -28 -42 98 
-102 -33 109 -115 

-36 -97 6 -96 
-121 60 94 -17 
50 -115 -120 3 
52 -42 -47 94 

99 -20 11 25 
-102 -85 106 -123 
0 -74 87 -42 
59 17 65 -62 

-26 -58 -37 103 
-126 -26 4 120 
122 19 50 52 
51 -57 -77 120 

-92 -100 10 -25 
22 17 -112 85 
-30 -94 66 63 
-21 -33 -67 23 



37 46 124 80 
-2 24 119 19 
37 -72 95 -98 
92 77 11 -109 

105 68 -103 -87 
79 80 71 120 
28 -2 -114 -13 
108 123 -93 89 

39 -66 73 -92 
125 4 19 -110 
-37 66 31 -67 
-6 107 -111 1 

-87 -16 64 116 
-63 69 -26 54 
22 -28 -42 98 
-102 -33 109 -115 

-36 -97 6 -96 
-121 60 94 -17 
50 -115 -120 3 
52 -42 -47 94 

99 -20 11 25 
-102 -85 106 -123 
0 -74 87 -42 
59 17 65 -62 

-26 -58 -37 103 
-126 -26 4 120 
122 19 50 52 
51 -57 -77 120 

-92 -100 10 -25 
22 17 -112 85 
-30 -94 66 63 
-21 -33 -67 23 


37 46 124 80 
-2 24 119 19 
37 -72 95 -98 
92 77 11 -109 

105 68 -103 -87 
79 80 71 120 
28 -2 -114 -13 
108 123 -93 89 

39 -66 73 -92 
125 4 19 -110 
-37 66 31 -67 
-6 107 -111 1 

-87 -16 64 116 
-63 69 -26 54 
22 -28 -42 98 
-102 -33 109 -115 

-36 -97 6 -96 
-121 60 94 -17 
50 -115 -120 3 
52 -42 -47 94 

99 -20 11 25 
-102 -85 106 -123 
0 -74 87 -42 
59 17 65 -62 

-26 -58 -37 103 
-126 -26 4 120 
122 19 50 52 
51 -57 -77 120 

-92 -100 10 -25 
22 17 -112 85 
-30 -94 66 63 
-21 -33 -67 23 


37 46 124 80 
-2 24 119 19 
37 -72 95 -98 
92 77 11 -109 

105 68 -103 -87 
79 80 71 120 
28 -2 -114 -13 
108 123 -93 89 

39 -66 73 -92 
125 4 19 -110 
-37 66 31 -67 
-6 107 -111 1 

-87 -16 64 116 
-63 69 -26 54 
22 -28 -42 98 
-102 -33 109 -115 

-36 -97 6 -96 
-121 60 94 -17 
50 -115 -120 3 
52 -42 -47 94 

99 -20 11 25 
-102 -85 106 -123 
0 -74 87 -42 
59 17 65 -62 

-26 -58 -37 103 
-126 -26 4 120 
122 19 50 52 
51 -57 -77 120 

-92 -100 10 -25 
22 17 -112 85 
-30 -94 66 63 
-21 -33 -67 23 


37 46 124 80 
-2 24 119 19 
37 -72 95 -98 
92 77 11 -109 

105 68 -103 -87 
79 80 71 120 
28 -2 -114 -13 
108 123 -93 89 

39 -66 73 -92 
125 4 19 -110 
-37 66 31 -67 
-6 107 -111 1 

-87 -16 64 116 
-63 69 -26 54 
22 -28 -42 98 
-102 -33 109 -115 

-36 -97 6 -96 
-121 60 94 -17 
50 -115 -120 3 
52 -42 -47 94 

99 -20 11 25 
-102 -85 106 -123 
0 -74 87 -42 
59 17 65 -62 

-26 -58 -37 103 
-126 -26 4 120 
122 19 50 52 
51 -57 -77 120 

-92 -100 10 -25 
22 17 -112 85 
-30 -94 66 63 
-21 -33 -67 23 



37 46 124 80 
-2 24 119 19 
37 -72 95 -98 
92 77 11 -109 

105 68 -103 -87 
79 80 71 120 
28 -2 -114 -13 
108 123 -93 89 

39 -66 73 -92 
125 4 19 -110 
-37 66 31 -67 
-6 107 -111 1 

-87 -16 64 116 
-63 69 -26 54 
22 -28 -42 98 
-102 -33 109 -115 

-36 -97 6 -96 
-121 60 94 -17 
50 -115 -120 3 
52 -42 -47 94 

99 -20 11 25 
-102 -85 106 -123 
0 -74 87 -42 
59 17 65 -62 

-26 -58 -37 103 
-126 -26 4 120 
122 19 50 52 
51 -57 -77 120 

-92 -100 10 -25 
22 17 -112 85 
-30 -94 66 63 
-21 -33 -67 23 


37 46 124 80 
-2 24 119 19 
37 -72 95 -98 
92 77 11 -109 

105 68 -103 -87 
79 80 71 120 
28 -2 -114 -13 
108 123 -93 89 

39 -66 73 -92 
125 4 19 -110 
-37 66 31 -67 
-6 107 -111 1 

-87 -16 64 116 
-63 69 -26 54 
22 -28 -42 98 
-102 -33 109 -115 

-36 -97 6 -96 
-121 60 94 -17 
50 -115 -120 3 
52 -42 -47 94 

99 -20 11 25 
-102 -85 106 -123 
0 -74 87 -42 
59 17 65 -62 

-26 -58 -37 103 
-126 -26 4 120 
122 19 50 52 
51 -57 -77 120 

-92 -100 10 -25 
22 17 -112 85 
-30 -94 66 63 
-21 -33 -67 23 


37 46 124 80 
-2 24 119 19 
37 -72 95 -98 
92 77 11 -109 

105 68 -103 -87 
79 80 71 120 
28 -2 -114 -13 
108 123 -93 89 

39 -66 73 -92 
125 4 19 -110 
-37 66 31 -67 
-6 107 -111 1 

-87 -16 64 116 
-63 69 -26 54 
22 -28 -42 98 
-102 -33 109 -115 

-36 -97 6 -96 
-121 60 94 -17 
50 -115 -120 3 
52 -42 -47 94 

99 -20 11 25 
-102 -85 106 -123 
0 -74 87 -42 
59 17 65 -62 

-26 -58 -37 103 
-126 -26 4 120 
122 19 50 52 
51 -57 -77 120 

-92 -100 10 -25 
22 17 -112 85 
-30 -94 66 63 
-21 -33 -67 23 


37 46 124 80 
-2 24 119 19 
37 -72 95 -98 
92 77 11 -109 

105 68 -103 -87 
79 80 71 120 
28 -2 -114 -13 
108 123 -93 89 

39 -66 73 -92 
125 4 19 -110 
-37 66 31 -67 
-6 107 -111 1 

-87 -16 64 116 
-63 69 -26 54 
22 -28 -42 98 
-102 -33 109 -115 

-36 -97 6 -96 
-121 60 94 -17 
50 -115 -120 3 
52 -42 -47 94 

99 -20 11 25 
-102 -85 106 -123 
0 -74 87 -42 
59 17 65 -62 

-26 -58 -37 103 
-126 -26 4 120 
122 19 50 52 
51 -57 -77 120 

-92 -100 10 -25 
22 17 -112 85 
-30 -94 66 63 
-21 -33 -67 23 



37 46 124 80 
-2 24 119 19 
37 -72 95 -98 
92 77 11 -109 

105 68 -103 -87 
79 80 71 120 
28 -2 -114 -13 
108 123 -93 89 

39 -66 73 -92 
125 4 19 -110 
-37 66 31 -67 
-6 107 -111 1 

-87 -16 64 116 
-63 69 -26 54 
22 -28 -42 98 
-102 -33 109 -115 

-36 -97 6 -96 
-121 60 94 -17 
50 -115 -120 3 
52 -42 -47 94 

99 -20 11 25 
-102 -85 106 -123 
0 -74 87 -42 
59 17 65 -62 

-26 -58 -37 103 
-126 -26 4 120 
122 19 50 52 
51 -57 -77 120 

-92 -100 10 -25 
22 17 -112 85 
-30 -94 66 63 
-21 -33 -67 23 


37 46 124 80 
-2 24 119 19 
37 -72 95 -98 
92 77 11 -109 

105 68 -103 -87 
79 80 71 120 
28 -2 -114 -13 
108 123 -93 89 

39 -66 73 -92 
125 4 19 -110 
-37 66 31 -67 
-6 107 -111 1 

-87 -16 64 116 
-63 69 -26 54 
22 -28 -42 98 
-102 -33 109 -115 

-36 -97 6 -96 
-121 60 94 -17 
50 -115 -120 3 
52 -42 -47 94 

99 -20 11 25 
-102 -85 106 -123 
0 -74 87 -42 
59 17 65 -62 

-26 -58 -37 103 
-126 -26 4 120 
122 19 50 52 
51 -57 -77 120 

-92 -100 10 -25 
22 17 -112 85 
-30 -94 66 63 
-21 -33 -67 23 


37 46 124 80 
-2 24 119 19 
37 -72 95 -98 
92 77 11 -109 

105 68 -103 -87 
79 80 71 120 
28 -2 -114 -13 
108 123 -93 89 

39 -66 73 -92 
125 4 19 -110 
-37 66 31 -67 
-6 107 -111 1 

-87 -16 64 116 
-63 69 -26 54 
22 -28 -42 98 
-102 -33 109 -115 

-36 -97 6 -96 
-121 60 94 -17 
50 -115 -120 3 
52 -42 -47 94 

99 -20 11 25 
-102 -85 106 -123 
0 -74 87 -42 
59 17 65 -62 

-26 -58 -37 103 
-126 -26 4 120 
122 19 50 52 
51 -57 -77 120 

-92 -100 10 -25 
22 17 -112 85 
-30 -94 66 63 
-21 -33 -67 23 


37 46 124 80 
-2 24 119 19 
37 -72 95 -98 
92 77 11 -109 

105 68 -103 -87 
79 80 71 120 
28 -2 -114 -13 
108 123 -93 89 

39 -66 73 -92 
125 4 19 -110 
-37 66 31 -67 
-6 107 -111 1 

-87 -16 64 116 
-63 69 -26 54 
22 -28 -42 98 
-102 -33 109 -115 

-36 -97 6 -96 
-121 60 94 -17 
50 -115 -120 3 
52 -42 -47 94 

99 -20 11 25 
-102 -85 106 -123 
0 -74 87 -42 
59 17 65 -62 

-26 -58 -37 103 
-126 -26 4 120 
122 19 50 52 
51 -57 -77 120 

-92 -100 10 -25 
22 17 -112 85 
-30 -94 66 63 
-21 -33 -67 23 



37 46 124 80 
-2 24 119 19 
37 -72 95 -98 
92 77 11 -109 

105 68 -103 -87 
79 80 71 120 
28 -2 -114 -13 
108 123 -93 89 

39 -66 73 -92 
125 4 19 -110 
-37 66 31 -67 
-6 107 -111 1 

-87 -16 64 116 
-63 69 -26 54 
22 -28 -42 98 
-102 -33 109 -115 

-36 -97 6 -96 
-121 60 94 -17 
50 -115 -120 3 
52 -42 -47 94 

99 -20 11 25 
-102 -85 106 -123 
0 -74 87 -42 
59 17 65 -62 

-26 -58 -37 103 
-126 -26 4 120 
122 19 50 52 
51 -57 -77 120 

-92 -100 10 -25 
22 17 -112 85 
-30 -94 66 63 
-21 -33 -67 23 


37 46 124 80 
-2 24 119 19 
37 -72 95 -98 
92 77 11 -109 

105 68 -103 -87 
79 80 71 120 
28 -2 -114 -13 
108 123 -93 89 

39 -66 73 -92 
125 4 19 -110 
-37 66 31 -67 
-6 107 -111 1 

-87 -16 64 116 
-63 69 -26 54 
22 -28 -42 98 
-102 -33 109 -115 

-36 -97 6 -96 
-121 60 94 -17 
50 -115 -120 3 
52 -42 -47 94 

99 -20 11 25 
-102 -85 106 -123 
0 -74 87 -42 
59 17 65 -62 

-26 -58 -37 103 
-126 -26 4 120 
122 19 50 52 
51 -57 -77 120 

-92 -100 10 -25 
22 17 -112 85 
-30 -94 66 63 
-21 -33 -67 23 


37 46 124 80 
-2 24 119 19 
37 -72 95 -98 
92 77 11 -109 

105 68 -103 -87 
79 80 71 120 
28 -2 -114 -13 
108 123 -93 89 

39 -66 73 -92 
125 4 19 -110 
-37 66 31 -67 
-6 107 -111 1 

-87 -16 64 116 
-63 69 -26 54 
22 -28 -42 98 
-102 -33 109 -115 

-36 -97 6 -96 
-121 60 94 -17 
50 -115 -120 3 
52 -42 -47 94 

99 -20 11 25 
-102 -85 106 -123 
0 -74 87 -42 
59 17 65 -62 

-26 -58 -37 103 
-126 -26 4 120 
122 19 50 52 
51 -57 -77 120 

-92 -100 10 -25 
22 17 -112 85 
-30 -94 66 63 
-21 -33 -67 23 


37 46 124 80 
-2 24 119 19 
37 -72 95 -98 
92 77 11 -109 

105 68 -103 -87 
79 80 71 120 
28 -2 -114 -13 
108 123 -93 89 

39 -66 73 -92 
125 4 19 -110 
-37 66 31 -67 
-6 107 -111 1 

-87 -16 64 116 
-63 69 -26 54 
22 -28 -42 98 
-102 -33 109 -115 

-36 -97 6 -96 
-121 60 94 -17 
50 -115 -120 3 
52 -42 -47 94 

99 -20 11 25 
-102 -85 106 -123 
0 -74 87 -42 
59 17 65 -62 

-26 -58 -37 103 
-126 -26 4 120 
122 19 50 52 
51 -57 -77 120 

-92 -100 10 -25 
22 17 -112 85 
-30 -94 66 63 
-21 -33 -67 23 




-57 32 -46 88 
-82 32 68 -67 
81 -102 2 123 
-31 -80 90 99 

73 94 -58 4 
82 -52 123 93 
-15 -21 -107 81 
-127 120 82 -98 

63 44 -1 -56 
79 11 -121 -78 
-81 74 -39 -97 
-11 66 -74 37 

116 6 -15 118 
-3 -2 118 1 
-117 -70 88 -90 
91 48 -74 67 

105 -13 93 49 
-27 57 -32 -118 
-126 122 -105 -12 
-57 -65 114 -114 

-102 -44 -59 -77 
-76 60 33 -27 
18 -21 -118 38 
117 120 4 -88 

58 95 -78 -67 
-115 -22 -85 -75 
-108 -22 -23 -88 
75 34 86 44 

-79 106 123 108 
-21 -34 109 38 
-73 37 -110 58 
-60 21 -9 20 


-57 32 -46 88 
-82 32 68 -67 
81 -102 2 123 
-31 -80 90 99 

73 94 -58 4 
82 -52 123 93 
-15 -21 -107 81 
-127 120 82 -98 

63 44 -1 -56 
79 11 -121 -78 
-81 74 -39 -97 
-11 66 -74 37 

116 6 -15 118 
-3 -2 118 1 
-117 -70 88 -90 
91 48 -74 67 

105 -13 93 49 
-27 57 -32 -118 
-126 122 -105 -12 
-57 -65 114 -114 

-102 -44 -59 -77 
-76 60 33 -27 
18 -21 -118 38 
117 120 4 -88 

58 95 -78 -67 
-115 -22 -85 -75 
-108 -22 -23 -88 
75 34 86 44 

-79 106 123 108 
-21 -34 109 38 
-73 37 -110 58 
-60 21 -9 20 


-57 32 -46 88 
-82 32 68 -67 
81 -102 2 123 
-31 -80 90 99 

73 94 -58 4 
82 -52 123 93 
-15 -21 -107 81 
-127 120 82 -98 

63 44 -1 -56 
79 11 -121 -78 
-81 74 -39 -97 
-11 66 -74 37 

116 6 -15 118 
-3 -2 118 1 
-117 -70 88 -90 
91 48 -74 67 

105 -13 93 49 
-27 57 -32 -118 
-126 122 -105 -12 
-57 -65 114 -114 

-102 -44 -59 -77 
-76 60 33 -27 
18 -21 -118 38 
117 120 4 -88 

58 95 -78 -67 
-115 -22 -85 -75 
-108 -22 -23 -88 
75 34 86 44 

-79 106 123 108 
-21 -34 109 38 
-73 37 -110 58 
-60 21 -9 20 


-57 32 -46 88 
-82 32 68 -67 
81 -102 2 123 
-31 -80 90 99 

73 94 -58 4 
82 -52 123 93 
-15 -21 -107 81 
-127 120 82 -98 

63 44 -1 -56 
79 11 -121 -78 
-81 74 -39 -97 
-11 66 -74 37 

116 6 -15 118 
-3 -2 118 1 
-117 -70 88 -90 
91 48 -74 67 

105 -13 93 49 
-27 57 -32 -118 
-126 122 -105 -12 
-57 -65 114 -114 

-102 -44 -59 -77 
-76 60 33 -27 
18 -21 -118 38 
117 120 4 -88 

58 95 -78 -67 
-115 -22 -85 -75 
-108 -22 -23 -88 
75 34 86 44 

-79 106 123 108 
-21 -34 109 38 
-73 37 -110 58 
-60 21 -9 20 



-57 32 -46 88 
-82 32 68 -67 
81 -102 2 123 
-31 -80 90 99 

73 94 -58 4 
82 -52 123 93 
-15 -21 -107 81 
-127 120 82 -98 

63 44 -1 -56 
79 11 -121 -78 
-81 74 -39 -97 
-11 66 -74 37 

116 6 -15 118 
-3 -2 118 1 
-117 -70 88 -90 
91 48 -74 67 

105 -13 93 49 
-27 57 -32 -118 
-126 122 -105 -12 
-57 -65 114 -114 

-102 -44 -59 -77 
-76 60 33 -27 
18 -21 -118 38 
117 120 4 -88 

58 95 -78 -67 
-115 -22 -85 -75 
-108 -22 -23 -88 
75 34 86 44 

-79 106 123 108 
-21 -34 109 38 
-73 37 -110 58 
-60 21 -9 20 


-57 32 -46 88 
-82 32 68 -67 
81 -102 2 123 
-31 -80 90 99 

73 94 -58 4 
82 -52 123 93 
-15 -21 -107 81 
-127 120 82 -98 

63 44 -1 -56 
79 11 -121 -78 
-81 74 -39 -97 
-11 66 -74 37 

116 6 -15 118 
-3 -2 118 1 
-117 -70 88 -90 
91 48 -74 67 

105 -13 93 49 
-27 57 -32 -118 
-126 122 -105 -12 
-57 -65 114 -114 

-102 -44 -59 -77 
-76 60 33 -27 
18 -21 -118 38 
117 120 4 -88 

58 95 -78 -67 
-115 -22 -85 -75 
-108 -22 -23 -88 
75 34 86 44 

-79 106 123 108 
-21 -34 109 38 
-73 37 -110 58 
-60 21 -9 20 


-57 32 -46 88 
-82 32 68 -67 
81 -102 2 123 
-31 -80 90 99 

73 94 -58 4 
82 -52 123 93 
-15 -21 -107 81 
-127 120 82 -98 

63 44 -1 -56 
79 11 -121 -78 
-81 74 -39 -97 
-11 66 -74 37 

116 6 -15 118 
-3 -2 118 1 
-117 -70 88 -90 
91 48 -74 67 

105 -13 93 49 
-27 57 -32 -118 
-126 122 -105 -12 
-57 -65 114 -114 

-102 -44 -59 -77 
-76 60 33 -27 
18 -21 -118 38 
117 120 4 -88 

58 95 -78 -67 
-115 -22 -85 -75 
-108 -22 -23 -88 
75 34 86 44 

-79 106 123 108 
-21 -34 109 38 
-73 37 -110 58 
-60 21 -9 20 


-57 32 -46 88 
-82 32 68 -67 
81 -102 2 123 
-31 -80 90 99 

73 94 -58 4 
82 -52 123 93 
-15 -21 -107 81 
-127 120 82 -98 

63 44 -1 -56 
79 11 -121 -78 
-81 74 -39 -97 
-11 66 -74 37 

116 6 -15 118 
-3 -2 118 1 
-117 -70 88 -90 
91 48 -74 67 

105 -13 93 49 
-27 57 -32 -118 
-126 122 -105 -12 
-57 -65 114 -114 

-102 -44 -59 -77 
-76 60 33 -27 
18 -21 -118 38 
117 120 4 -88 

58 95 -78 -67 
-115 -22 -85 -75 
-108 -22 -23 -88 
75 34 86 44 

-79 106 123 108 
-21 -34 109 38 
-73 37 -110 58 
-60 21 -9 20 



-57 32 -46 88 
-82 32 68 -67 
81 -102 2 123 
-31 -80 90 99 

73 94 -58 4 
82 -52 123 93 
-15 -21 -107 81 
-127 120 82 -98 

63 44 -1 -56 
79 11 -121 -78 
-81 74 -39 -97 
-11 66 -74 37 

116 6 -15 118 
-3 -2 118 1 
-117 -70 88 -90 
91 48 -74 67 

105 -13 93 49 
-27 57 -32 -118 
-126 122 -105 -12 
-57 -65 114 -114 

-102 -44 -59 -77 
-76 60 33 -27 
18 -21 -118 38 
117 120 4 -88 

58 95 -78 -67 
-115 -22 -85 -75 
-108 -22 -23 -88 
75 34 86 44 

-79 106 123 108 
-21 -34 109 38 
-73 37 -110 58 
-60 21 -9 20 


-57 32 -46 88 
-82 32 68 -67 
81 -102 2 123 
-31 -80 90 99 

73 94 -58 4 
82 -52 123 93 
-15 -21 -107 81 
-127 120 82 -98 

63 44 -1 -56 
79 11 -121 -78 
-81 74 -39 -97 
-11 66 -74 37 

116 6 -15 118 
-3 -2 118 1 
-117 -70 88 -90 
91 48 -74 67 

105 -13 93 49 
-27 57 -32 -118 
-126 122 -105 -12 
-57 -65 114 -114 

-102 -44 -59 -77 
-76 60 33 -27 
18 -21 -118 38 
117 120 4 -88 

58 95 -78 -67 
-115 -22 -85 -75 
-108 -22 -23 -88 
75 34 86 44 

-79 106 123 108 
-21 -34 109 38 
-73 37 -110 58 
-60 21 -9 20 


-57 32 -46 88 
-82 32 68 -67 
81 -102 2 123 
-31 -80 90 99 

73 94 -58 4 
82 -52 123 93 
-15 -21 -107 81 
-127 120 82 -98 

63 44 -1 -56 
79 11 -121 -78 
-81 74 -39 -97 
-11 66 -74 37 

116 6 -15 118 
-3 -2 118 1 
-117 -70 88 -90 
91 48 -74 67 

105 -13 93 49 
-27 57 -32 -118 
-126 122 -105 -12 
-57 -65 114 -114 

-102 -44 -59 -77 
-76 60 33 -27 
18 -21 -118 38 
117 120 4 -88 

58 95 -78 -67 
-115 -22 -85 -75 
-108 -22 -23 -88 
75 34 86 44 

-79 106 123 108 
-21 -34 109 38 
-73 37 -110 58 
-60 21 -9 20 


-57 32 -46 88 
-82 32 68 -67 
81 -102 2 123 
-31 -80 90 99 

73 94 -58 4 
82 -52 123 93 
-15 -21 -107 81 
-127 120 82 -98 

63 44 -1 -56 
79 11 -121 -78 
-81 74 -39 -97 
-11 66 -74 37 

116 6 -15 118 
-3 -2 118 1 
-117 -70 88 -90 
91 48 -74 67 

105 -13 93 49 
-27 57 -32 -118 
-126 122 -105 -12 
-57 -65 114 -114 

-102 -44 -59 -77 
-76 60 33 -27 
18 -21 -118 38 
117 120 4 -88 

58 95 -78 -67 
-115 -22 -85 -75 
-108 -22 -23 -88 
75 34 86 44 

-79 106 123 108 
-21 -34 109 38 
-73 37 -110 58 
-60 21 -9 20 



-57 32 -46 88 
-82 32 68 -67 
81 -102 2 123 
-31 -80 90 99 

73 94 -58 4 
82 -52 123 93 
-15 -21 -107 81 
-127 120 82 -98 

63 44 -1 -56 
79 11 -121 -78 
-81 74 -39 -97 
-11 66 -74 37 

116 6 -15 118 
-3 -2 118 1 
-117 -70 88 -90 
91 48 -74 67 

105 -13 93 49 
-27 57 -32 -118 
-126 122 -105 -12 
-57 -65 114 -114 

-102 -44 -59 -77 
-76 60 33 -27 
18 -21 -118 38 
117 120 4 -88 

58 95 -78 -67 
-115 -22 -85 -75 
-108 -22 -23 -88 
75 34 86 44 

-79 106 123 108 
-21 -34 109 38 
-73 37 -110 58 
-60 21 -9 20 


-57 32 -46 88 
-82 32 68 -67 
81 -102 2 123 
-31 -80 90 99 

73 94 -58 4 
82 -52 123 93 
-15 -21 -107 81 
-127 120 82 -98 

63 44 -1 -56 
79 11 -121 -78 
-81 74 -39 -97 
-11 66 -74 37 

116 6 -15 118 
-3 -2 118 1 
-117 -70 88 -90 
91 48 -74 67 

105 -13 93 49 
-27 57 -32 -118 
-126 122 -105 -12 
-57 -65 114 -114 

-102 -44 -59 -77 
-76 60 33 -27 
18 -21 -118 38 
117 120 4 -88 

58 95 -78 -67 
-115 -22 -85 -75 
-108 -22 -23 -88 
75 34 86 44 

-79 106 123 108 
-21 -34 109 38 
-73 37 -110 58 
-60 21 -9 20 


-57 32 -46 88 
-82 32 68 -67 
81 -102 2 123 
-31 -80 90 99 

73 94 -58 4 
82 -52 123 93 
-15 -21 -107 81 
-127 120 82 -98 

63 44 -1 -56 
79 11 -121 -78 
-81 74 -39 -97 
-11 66 -74 37 

116 6 -15 118 
-3 -2 118 1 
-117 -70 88 -90 
91 48 -74 67 

105 -13 93 49 
-27 57 -32 -118 
-126 122 -105 -12 
-57 -65 114 -114 

-102 -44 -59 -77 
-76 60 33 -27 
18 -21 -118 38 
117 120 4 -88 

58 95 -78 -67 
-115 -22 -85 -75 
-108 -22 -23 -88 
75 34 86 44 

-79 106 123 108 
-21 -34 109 38 
-73 37 -110 58 
-60 21 -9 20 


-57 32 -46 88 
-82 32 68 -67 
81 -102 2 123 
-31 -80 90 99 

73 94 -58 4 
82 -52 123 93 
-15 -21 -107 81 
-127 120 82 -98 

63 44 -1 -56 
79 11 -121 -78 
-81 74 -39 -97 
-11 66 -74 37 

116 6 -15 118 
-3 -2 118 1 
-117 -70 88 -90 
91 48 -74 67 

105 -13 93 49 
-27 57 -32 -118 
-126 122 -105 -12 
-57 -65 114 -114 

-102 -44 -59 -77 
-76 60 33 -27 
18 -21 -118 38 
117 120 4 -88 

58 95 -78 -67 
-115 -22 -85 -75 
-108 -22 -23 -88 
75 34 86 44 

-79 106 123 108 
-21 -34 109 38 
-73 37 -110 58 
-60 21 -9 20 



-57 32 -46 88 
-82 32 68 -67 
81 -102 2 123 
-31 -80 90 99 

73 94 -58 4 
82 -52 123 93 
-15 -21 -107 81 
-127 120 82 -98 

63 44 -1 -56 
79 11 -121 -78 
-81 74 -39 -97 
-11 66 -74 37 

116 6 -15 118 
-3 -2 118 1 
-117 -70 88 -90 
91 48 -74 67 

105 -13 93 49 
-27 57 -32 -118 
-126 122 -105 -12 
-57 -65 114 -114 

-102 -44 -59 -77 
-76 60 33 -27 
18 -21 -118 38 
117 120 4 -88 

58 95 -78 -67 
-115 -22 -85 -75 
-108 -22 -23 -88 
75 34 86 44 

-79 106 123 108 
-21 -34 109 38 
-73 37 -110 58 
-60 21 -9 20 


-57 32 -46 88 
-82 32 68 -67 
81 -102 2 123 
-31 -80 90 99 

73 94 -58 4 
82 -52 123 93 
-15 -21 -107 81 
-127 120 82 -98 

63 44 -1 -56 
79 11 -121 -78 
-81 74 -39 -97 
-11 66 -74 37 

116 6 -15 118 
-3 -2 118 1 
-117 -70 88 -90 
91 48 -74 67 

105 -13 93 49 
-27 57 -32 -118 
-126 122 -105 -12 
-57 -65 114 -114 

-102 -44 -59 -77 
-76 60 33 -27 
18 -21 -118 38 
117 120 4 -88 

58 95 -78 -67 
-115 -22 -85 -75 
-108 -22 -23 -88 
75 34 86 44 

-79 106 123 108 
-21 -34 109 38 
-73 37 -110 58 
-60 21 -9 20 


-57 32 -46 88 
-82 32 68 -67 
81 -102 2 123 
-31 -80 90 99 

73 94 -58 4 
82 -52 123 93 
-15 -21 -107 81 
-127 120 82 -98 

63 44 -1 -56 
79 11 -121 -78 
-81 74 -39 -97 
-11 66 -74 37 

116 6 -15 118 
-3 -2 118 1 
-117 -70 88 -90 
91 48 -74 67 

105 -13 93 49 
-27 57 -32 -118 
-126 122 -105 -12 
-57 -65 114 -114 

-102 -44 -59 -77 
-76 60 33 -27 
18 -21 -118 38 
117 120 4 -88 

58 95 -78 -67 
-115 -22 -85 -75 
-108 -22 -23 -88 
75 34 86 44 

-79 106 123 108 
-21 -34 109 38 
-73 37 -110 58 
-60 21 -9 20 


-57 32 -46 88 
-82 32 68 -67 
81 -102 2 123 
-31 -80 90 99 

73 94 -58 4 
82 -52 123 93 
-15 -21 -107 81 
-127 120 82 -98 

63 44 -1 -56 
79 11 -121 -78 
-81 74 -39 -97 
-11 66 -74 37 

116 6 -15 118 
-3 -2 118 1 
-117 -70 88 -90 
91 48 -74 67 

105 -13 93 49 
-27 57 -32 -118 
-126 122 -105 -12 
-57 -65 114 -114 

-102 -44 -59 -77 
-76 60 33 -27 
18 -21 -118 38 
117 120 4 -88 

58 95 -78 -67 
-115 -22 -85 -75 
-108 -22 -23 -88 
75 34 86 44 

-79 106 123 108 
-21 -34 109 38 
-73 37 -110 58 
-60 21 -9 20 



-57 32 -46 88 
-82 32 68 -67 
81 -102 2 123 
-31 -80 90 99 

73 94 -58 4 
82 -52 123 93 
-15 -21 -107 81 
-127 120 82 -98 

63 44 -1 -56 
79 11 -121 -78 
-81 74 -39 -97 
-11 66 -74 37 

116 6 -15 118 
-3 -2 118 1 
-117 -70 88 -90 
91 48 -74 67 

105 -13 93 49 
-27 57 -32 -118 
-126 122 -105 -12 
-57 -65 114 -114 

-102 -44 -59 -77 
-76 60 33 -27 
18 -21 -118 38 
117 120 4 -88 

58 95 -78 -67 
-115 -22 -85 -75 
-108 -22 -23 -88 
75 34 86 44 

-79 106 123 108 
-21 -34 109 38 
-73 37 -110 58 
-60 21 -9 20 


-57 32 -46 88 
-82 32 68 -67 
81 -102 2 123 
-31 -80 90 99 

73 94 -58 4 
82 -52 123 93 
-15 -21 -107 81 
-127 120 82 -98 

63 44 -1 -56 
79 11 -121 -78 
-81 74 -39 -97 
-11 66 -74 37 

116 6 -15 118 
-3 -2 118 1 
-117 -70 88 -90 
91 48 -74 67 

105 -13 93 49 
-27 57 -32 -118 
-126 122 -105 -12 
-57 -65 114 -114 

-102 -44 -59 -77 
-76 60 33 -27 
18 -21 -118 38 
117 120 4 -88 

58 95 -78 -67 
-115 -22 -85 -75 
-108 -22 -23 -88 
75 34 86 44 

-79 106 123 108 
-21 -34 109 38 
-73 37 -110 58 
-60 21 -9 20 


-57 32 -46 88 
-82 32 68 -67 
81 -102 2 123 
-31 -80 90 99 

73 94 -58 4 
82 -52 123 93 
-15 -21 -107 81 
-127 120 82 -98 

63 44 -1 -56 
79 11 -121 -78 
-81 74 -39 -97 
-11 66 -74 37 

116 6 -15 118 
-3 -2 118 1 
-117 -70 88 -90 
91 48 -74 67 

105 -13 93 49 
-27 57 -32 -118 
-126 122 -105 -12 
-57 -65 114 -114 

-102 -44 -59 -77 
-76 60 33 -27 
18 -21 -118 38 
117 120 4 -88 

58 95 -78 -67 
-115 -22 -85 -75 
-108 -22 -23 -88 
75 34 86 44 

-79 106 123 108 
-21 -34 109 38 
-73 37 -110 58 
-60 21 -9 20 


-57 32 -46 88 
-82 32 68 -67 
81 -102 2 123 
-31 -80 90 99 

73 94 -58 4 
82 -52 123 93 
-15 -21 -107 81 
-127 120 82 -98 

63 44 -1 -56 
79 11 -121 -78 
-81 74 -39 -97 
-11 66 -74 37 

116 6 -15 118 
-3 -2 118 1 
-117 -70 88 -90 
91 48 -74 67 

105 -13 93 49 
-27 57 -32 -118 
-126 122 -105 -12 
-57 -65 114 -114 

-102 -44 -59 -77 
-76 60 33 -27 
18 -21 -118 38 
117 120 4 -88 

58 95 -78 -67 
-115 -22 -85 -75 
-108 -22 -23 -88 
75 34 86 44 

-79 106 123 108 
-21 -34 109 38 
-73 37 -110 58 
-60 21 -9 20 



-57 32 -46 88 
-82 32 68 -67 
81 -102 2 123 
-31 -80 90 99 

73 94 -58 4 
82 -52 123 93 
-15 -21 -107 81 
-127 120 82 -98 

63 44 -1 -56 
79 11 -121 -78 
-81 74 -39 -97 
-11 66 -74 37 

116 6 -15 118 
-3 -2 118 1 
-117 -70 88 -90 
91 48 -74 67 

105 -13 93 49 
-27 57 -32 -118 
-126 122 -105 -12 
-57 -65 114 -114 

-102 -44 -59 -77 
-76 60 33 -27 
18 -21 -118 38 
117 120 4 -88 

58 95 -78 -67 
-115 -22 -85 -75 
-108 -22 -23 -88 
75 34 86 44 

-79 106 123 108 
-21 -34 109 38 
-73 37 -110 58 
-60 21 -9 20 


-57 32 -46 88 
-82 32 68 -67 
81 -102 2 123 
-31 -80 90 99 

73 94 -58 4 
82 -52 123 93 
-15 -21 -107 81 
-127 120 82 -98 

63 44 -1 -56 
79 11 -121 -78 
-81 74 -39 -97 
-11 66 -74 37 

116 6 -15 118 
-3 -2 118 1 
-117 -70 88 -90 
91 48 -74 67 

105 -13 93 49 
-27 57 -32 -118 
-126 122 -105 -12 
-57 -65 114 -114 

-102 -44 -59 -77 
-76 60 33 -27 
18 -21 -118 38 
117 120 4 -88 

58 95 -78 -67 
-115 -22 -85 -75 
-108 -22 -23 -88 
75 34 86 44 

-79 106 123 108 
-21 -34 109 38 
-73 37 -110 58 
-60 21 -9 20 


-57 32 -46 88 
-82 32 68 -67 
81 -102 2 123 
-31 -80 90 99 

73 94 -58 4 
82 -52 123 93 
-15 -21 -107 81 
-127 120 82 -98 

63 44 -1 -56 
79 11 -121 -78 
-81 74 -39 -97 
-11 66 -74 37 

116 6 -15 118 
-3 -2 118 1 
-117 -70 88 -90 
91 48 -74 67 

105 -13 93 49 
-27 57 -32 -118 
-126 122 -105 -12 
-57 -65 114 -114 

-102 -44 -59 -77 
-76 60 33 -27 
18 -21 -118 38 
117 120 4 -88 

58 95 -78 -67 
-115 -22 -85 -75 
-108 -22 -23 -88 
75 34 86 44 

-79 106 123 108 
-21 -34 109 38 
-73 37 -110 58 
-60 21 -9 20 


-57 32 -46 88 
-82 32 68 -67 
81 -102 2 123 
-31 -80 90 99 

73 94 -58 4 
82 -52 123 93 
-15 -21 -107 81 
-127 120 82 -98 

63 44 -1 -56 
79 11 -121 -78 
-81 74 -39 -97 
-11 66 -74 37 

116 6 -15 118 
-3 -2 118 1 
-117 -70 88 -90 
91 48 -74 67 

105 -13 93 49 
-27 57 -32 -118 
-126 122 -105 -12 
-57 -65 114 -114 

-102 -44 -59 -77 
-76 60 33 -27 
18 -21 -118 38 
117 120 4 -88 

58 95 -78 -67 
-115 -22 -85 -75 
-108 -22 -23 -88 
75 34 86 44 

-79 106 123 108 
-21 -34 109 38 
-73 37 -110 58 
-60 21 -9 20 



-57 32 -46 88 
-82 32 68 -67 
81 -102 2 123 
-31 -80 90 99 

73 94 -58 4 
82 -52 123 93 
-15 -21 -107 81 
-127 120 82 -98 

63 44 -1 -56 
79 11 -121 -78 
-81 74 -39 -97 
-11 66 -74 37 

116 6 -15 118 
-3 -2 118 1 
-117 -70 88 -90 
91 48 -74 67 

105 -13 93 49 
-27 57 -32 -118 
-126 122 -105 -12 
-57 -65 114 -114 

-102 -44 -59 -77 
-76 60 33 -27 
18 -21 -118 38 
117 120 4 -88 

58 95 -78 -67 
-115 -22 -85 -75 
-108 -22 -23 -88 
75 34 86 44 

-79 106 123 108 
-21 -34 109 38 
-73 37 -110 58 
-60 21 -9 20 


-57 32 -46 88 
-82 32 68 -67 
81 -102 2 123 
-31 -80 90 99 

73 94 -58 4 
82 -52 123 93 
-15 -21 -107 81 
-127 120 82 -98 

63 44 -1 -56 
79 11 -121 -78 
-81 74 -39 -97 
-11 66 -74 37 

116 6 -15 118 
-3 -2 118 1 
-117 -70 88 -90 
91 48 -74 67 

105 -13 93 49 
-27 57 -32 -118 
-126 122 -105 -12 
-57 -65 114 -114 

-102 -44 -59 -77 
-76 60 33 -27 
18 -21 -118 38 
117 120 4 -88 

58 95 -78 -67 
-115 -22 -85 -75 
-108 -22 -23 -88 
75 34 86 44 

-79 106 123 108 
-21 -34 109 38 
-73 37 -110 58 
-60 21 -9 20 


-57 32 -46 88 
-82 32 68 -67 
81 -102 2 123 
-31 -80 90 99 

73 94 -58 4 
82 -52 123 93 
-15 -21 -107 81 
-127 120 82 -98 

63 44 -1 -56 
79 11 -121 -78 
-81 74 -39 -97 
-11 66 -74 37 

116 6 -15 118 
-3 -2 118 1 
-117 -70 88 -90 
91 48 -74 67 

105 -13 93 49 
-27 57 -32 -118 
-126 122 -105 -12 
-57 -65 114 -114 

-102 -44 -59 -77 
-76 60 33 -27 
18 -21 -118 38 
117 120 4 -88 

58 95 -78 -67 
-115 -22 -85 -75 
-108 -22 -23 -88 
75 34 86 44 

-79 106 123 108 
-21 -34 109 38 
-73 37 -110 58 
-60 21 -9 20 


-57 32 -46 88 
-82 32 68 -67 
81 -102 2 123 
-31 -80 90 99 

73 94 -58 4 
82 -52 123 93 
-15 -21 -107 81 
-127 120 82 -98 

63 44 -1 -56 
79 11 -121 -78 
-81 74 -39 -97 
-11 66 -74 37 

116 6 -15 118 
-3 -2 118 1 
-117 -70 88 -90 
91 48 -74 67 

105 -13 93 49 
-27 57 -32 -118 
-126 122 -105 -12 
-57 -65 114 -114 

-102 -44 -59 -77 
-76 60 33 -27 
18 -21 -118 38 
117 120 4 -88 

58 95 -78 -67 
-115 -22 -85 -75 
-108 -22 -23 -88 
75 34 86 44 

-79 106 123 108 
-21 -34 109 38 
-73 37 -110 58 
-60 21 -9 20 



-57 32 -46 88 
-82 32 68 -67 
81 -102 2 123 
-31 -80 90 99 

73 94 -58 4 
82 -52 123 93 
-15 -21 -107 81 
-127 120 82 -98 

63 44 -1 -56 
79 11 -121 -78 
-81 74 -39 -97 
-11 66 -74 37 

116 6 -15 118 
-3 -2 118 1 
-117 -70 88 -90 
91 48 -74 67 

105 -13 93 49 
-27 57 -32 -118 
-126 122 -105 -12 
-57 -65 114 -114 

-102 -44 -59 -77 
-76 60 33 -27 
18 -21 -118 38 
117 120 4 -88 

58 95 -78 -67 
-115 -22 -85 -75 
-108 -22 -23 -88 
75 34 86 44 

-79 106 123 108 
-21 -34 109 38 
-73 37 -110 58 
-60 21 -9 20 


-57 32 -46 88 
-82 32 68 -67 
81 -102 2 123 
-31 -80 90 99 

73 94 -58 4 
82 -52 123 93 
-15 -21 -107 81 
-127 120 82 -98 

63 44 -1 -56 
79 11 -121 -78 
-81 74 -39 -97 
-11 66 -74 37 

116 6 -15 118 
-3 -2 118 1 
-117 -70 88 -90 
91 48 -74 67 

105 -13 93 49 
-27 57 -32 -118 
-126 122 -105 -12 
-57 -65 114 -114 

-102 -44 -59 -77 
-76 60 33 -27 
18 -21 -118 38 
117 120 4 -88 

58 95 -78 -67 
-115 -22 -85 -75 
-108 -22 -23 -88 
75 34 86 44 

-79 106 123 108 
-21 -34 109 38 
-73 37 -110 58 
-60 21 -9 20 


-57 32 -46 88 
-82 32 68 -67 
81 -102 2 123 
-31 -80 90 99 

73 94 -58 4 
82 -52 123 93 
-15 -21 -107 81 
-127 120 82 -98 

63 44 -1 -56 
79 11 -121 -78 
-81 74 -39 -97 
-11 66 -74 37 

116 6 -15 118 
-3 -2 118 1 
-117 -70 88 -90 
91 48 -74 67 

105 -13 93 49 
-27 57 -32 -118 
-126 122 -105 -12 
-57 -65 114 -114 

-102 -44 -59 -77 
-76 60 33 -27 
18 -21 -118 38 
117 120 4 -88 

58 95 -78 -67 
-115 -22 -85 -75 
-108 -22 -23 -88 
75 34 86 44 

-79 106 123 108 
-21 -34 109 38 
-73 37 -110 58 
-60 21 -9 20 


-57 32 -46 88 
-82 32 68 -67 
81 -102 2 123 
-31 -80 90 99 

73 94 -58 4 
82 -52 123 93 
-15 -21 -107 81 
-127 120 82 -98 

63 44 -1 -56 
79 11 -121 -78 
-81 74 -39 -97 
-11 66 -74 37 

116 6 -15 118 
-3 -2 118 1 
-117 -70 88 -90 
91 48 -74 67 

105 -13 93 49 
-27 57 -32 -118 
-126 122 -105 -12 
-57 -65 114 -114 

-102 -44 -59 -77 
-76 60 33 -27 
18 -21 -118 38 
117 120 4 -88 

58 95 -78 -67 
-115 -22 -85 -75 
-108 -22 -23 -88 
75 34 86 44 

-79 106 123 108 
-21 -34 109 38 
-73 37 -110 58 
-60 21 -9 20 



-57 32 -46 88 
-82 32 68 -67 
81 -102 2 123 
-31 -80 90 99 

73 94 -58 4 
82 -52 123 93 
-15 -21 -107 81 
-127 120 82 -98 

63 44 -1 -56 
79 11 -121 -78 
-81 74 -39 -97 
-11 66 -74 37 

116 6 -15 118 
-3 -2 118 1 
-117 -70 88 -90 
91 48 -74 67 

105 -13 93 49 
-27 57 -32 -118 
-126 122 -105 -12 
-57 -65 114 -114 

-102 -44 -59 -77 
-76 60 33 -27 
18 -21 -118 38 
117 120 4 -88 

58 95 -78 -67 
-115 -22 -85 -75 
-108 -22 -23 -88 
75 34 86 44 

-79 106 123 108 
-21 -34 109 38 
-73 37 -110 58 
-60 21 -9 20 


-57 32 -46 88 
-82 32 68 -67 
81 -102 2 123 
-31 -80 90 99 

73 94 -58 4 
82 -52 123 93 
-15 -21 -107 81 
-127 120 82 -98 

63 44 -1 -56 
79 11 -121 -78 
-81 74 -39 -97 
-11 66 -74 37 

116 6 -15 118 
-3 -2 118 1 
-117 -70 88 -90 
91 48 -74 67 

105 -13 93 49 
-27 57 -32 -118 
-126 122 -105 -12 
-57 -65 114 -114 

-102 -44 -59 -77 
-76 60 33 -27 
18 -21 -118 38 
117 120 4 -88 

58 95 -78 -67 
-115 -22 -85 -75 
-108 -22 -23 -88 
75 34 86 44 

-79 106 123 108 
-21 -34 109 38 
-73 37 -110 58 
-60 21 -9 20 


-57 32 -46 88 
-82 32 68 -67 
81 -102 2 123 
-31 -80 90 99 

73 94 -58 4 
82 -52 123 93 
-15 -21 -107 81 
-127 120 82 -98 

63 44 -1 -56 
79 11 -121 -78 
-81 74 -39 -97 
-11 66 -74 37 

116 6 -15 118 
-3 -2 118 1 
-117 -70 88 -90 
91 48 -74 67 

105 -13 93 49 
-27 57 -32 -118 
-126 122 -105 -12 
-57 -65 114 -114 

-102 -44 -59 -77 
-76 60 33 -27 
18 -21 -118 38 
117 120 4 -88 

58 95 -78 -67 
-115 -22 -85 -75 
-108 -22 -23 -88 
75 34 86 44 

-79 106 123 108 
-21 -34 109 38 
-73 37 -110 58 
-60 21 -9 20 


-57 32 -46 88 
-82 32 68 -67 
81 -102 2 123 
-31 -80 90 99 

73 94 -58 4 
82 -52 123 93 
-15 -21 -107 81 
-127 120 82 -98 

63 44 -1 -56 
79 11 -121 -78 
-81 74 -39 -97 
-11 66 -74 37 

116 6 -15 118 
-3 -2 118 1 
-117 -70 88 -90 
91 48 -74 67 

105 -13 93 49 
-27 57 -32 -118 
-126 122 -105 -12 
-57 -65 114 -114 

-102 -44 -59 -77 
-76 60 33 -27 
18 -21 -118 38 
117 120 4 -88 

58 95 -78 -67 
-115 -22 -85 -75 
-108 -22 -23 -88 
75 34 86 44 

-79 106 123 108 
-21 -34 109 38 
-73 37 -110 58 
-60 21 -9 20 



-57 32 -46 88 
-82 32 68 -67 
81 -102 2 123 
-31 -80 90 99 

73 94 -58 4 
82 -52 123 93 
-15 -21 -107 81 
-127 120 82 -98 

63 44 -1 -56 
79 11 -121 -78 
-81 74 -39 -97 
-11 66 -74 37 

116 6 -15 118 
-3 -2 118 1 
-117 -70 88 -90 
91 48 -74 67 

105 -13 93 49 
-27 57 -32 -118 
-126 122 -105 -12 
-57 -65 114 -114 

-102 -44 -59 -77 
-76 60 33 -27 
18 -21 -118 38 
117 120 4 -88 

58 95 -78 -67 
-115 -22 -85 -75 
-108 -22 -23 -88 
75 34 86 44 

-79 106 123 108 
-21 -34 109 38 
-73 37 -110 58 
-60 21 -9 20 


-57 32 -46 88 
-82 32 68 -67 
81 -102 2 123 
-31 -80 90 99 

73 94 -58 4 
82 -52 123 93 
-15 -21 -107 81 
-127 120 82 -98 

63 44 -1 -56 
79 11 -121 -78 
